tree
version=v4
num_class=1
num_tree_per_iteration=1
label_index=0
max_feature_idx=80
objective=regression
feature_names=ema_5 ema_10 ema_20 ema_50 ema_100 ema_200 rsi_7 rsi_14 rsi_21 macd macd_signal macd_histogram bb_upper bb_middle bb_lower bb_width atr_14 atr_21 adx plus_di minus_di stoch_k stoch_d cci_14 cci_20 williams_r obv vwap volume_ma_ratio volume_delta volume_trend higher_high lower_low consecutive_up consecutive_down pct_change_1 pct_change_5 pct_change_10 body_ratio upper_wick_ratio lower_wick_ratio ema_cross_5_20 ema_cross_10_50 price_vs_ema_20 price_vs_ema_50 bb_position atr_ratio momentum_10 trend_strength volatility_norm dist_to_support dist_to_resistance swing_high_count swing_low_count price_position_ema trend_quality structural_bias near_key_level breakout_probability consolidation htf_ema_20 htf_ema_50 htf_rsi htf_macd htf_macd_signal htf_macd_hist htf_bb_upper htf_bb_lower htf_bb_middle htf_adx htf_atr htf_volume_ma mtf_trend_aligned htf_ema_trend mtf_rsi_diff mtf_momentum_agreement htf_bb_position htf_macd_direction htf_volume_trend mtf_volatility_ratio mtf_score
feature_infos=[2729.2590660399637:3407.438786878738] [2736.0120937117467:3400.0653903150146] [2740.197362453348:3394.1045416059815] [2745.7762131820823:3379.390183212447] [2745.992352459572:3362.138757692815] [2746.1119075527372:3341.86529635434] [0:99.20212765957433] [0:94.538693934464504] [0.75506051194189183:94.051914794552317] [-45.171979795254174:58.559303477356934] [-39.760183781587259:53.658305248287846] [-13.252391838528091:14.52834533413106] [2749.8796702719851:3435.4758274814062] [2735.4845:3393.6394999999998] [2691.4050327541381:3362.9248832823541] [0.0013243906802045411:0.092526841063542795] [1.7664285714285077:34.952857142857091] [1.8599999999999541:32.572380952380975] [8.502363943967703:94.670653079043447] [0.33689442103030798:101.97756243212028] [0.24691700030708424:89.581785468886864] [0:99.999999999839872] [1.8566853602659803:97.6438870708959] [-401.99088739097249:447.28334751272871] [-434.22360736246054:538.22758967780101] [-99.999999999649873:0] [-686362.56000000041:271696.71999999904] [2744.4653244518308:3052.038151735926] [0.062708260727949883:14.853261221250813] [-70957.820000000007:69946.809999999998] [0.15958238947593512:3.5802519443923133] [0:5] [0:5] [0:5] [0:5] [-0.018877820260877143:0.017667212773703644] [-0.034555888223552822:0.03275316805626205] [-0.050319330995703182:0.050602078864030897] [0:0.99999999998890121] [0:0.9870129868851103] [0:0.99999999995633182] [0:1] [0:1] [-3.0349288801895842:3.1257839867174462] [-4.5987076900781672:5.3225351367022711] [-0.44041838269697287:1.5047402994866028] [0.49834842420238323:2.515334033265185] [-0.050319330995703182:0.050602078864030897] [0.085023639439677029:0.94670653079043443] [0.057238215593419128:1.03872406798427] [0:8.6484269417576041] [0:7.0245295995203447] [2:9] [1:9] [-4.5987076900781672:5.3225351367022711] [1.1515647435622611e-08:0.96299386760405137] [-1:1] [0:1] [0.016220725152955046:0.98799999999999999] [0:0.76560319195984428] none none none none none none none none none none none none [0:1] none [-27.569537998256493:66.969155936208011] [0:1] [0:1] none [0.0018469336744364366:3] [1.0669830654675707:2] [0.5:0.94999999999999996]
tree_sizes=2070 2577 2590 2760 2767 1569 2216 2036 2214 1966 1611 1515

Tree=0
num_leaves=23
num_cat=0
split_feature=16 25 26 0 46 15 43 27 23 16 44 14 47 0 24 25 40 26 52 55 0 0
split_gain=0.512934 0.26144 0.317009 0.209474 0.180075 0.366454 0.0953656 0.455108 0.0767698 0.142452 0.0539909 0.111821 0.0444884 0.100047 0.0419287 0.0328581 0.0322824 0.0313405 0.0265478 0.018933 0.00608931 0.000569533
threshold=13.32821428571429 -88.59028904747835 -150588.64500000107 3380.0380900687342 1.6456139384615851 0.023505108264716409 -0.55684592671840238 3035.9604163781801 219.82931815053652 10.605714285714273 -1.0282697964808447 2993.7852882807506 0.011558254575517181 3057.4623838951179 173.06030770045632 -98.349878041472081 0.10526315788921316 -568213.64500000037 5.5000000000000009 0.70100021713915706 2823.7363239292436 2916.2912468228819
decision_type=2 2 2 2 2 2 2 2 2 2 2 2 2 2 2 2 2 2 2 2 2 2
left_child=6 2 -2 4 10 -6 7 18 12 16 11 -3 15 21 -12 -8 -10 -17 20 -7 -1 -14
right_child=1 3 -4 -5 5 19 8 -9 9 -11 14 -13 13 -15 -16 17 -18 -19 -20 -21 -22 -23
leaf_value=0.50955225500197143 0.51636356273413431 0.50916213826695478 0.50986161147326847 0.51479401609821662 0.51791708846495477 0.51089066399878813 0.51046536214745275 0.51712149436271737 0.50859653682832595 0.51386928607207361 0.50907566087881873 0.51279037274937933 0.50896136211383147 0.51304670100950622 0.51108515861828796 0.50939268358713918 0.51089530101430591 0.50874984461433759 0.51035715806033477 0.50880768492232376 0.50859653682832595 0.50859653682832595
leaf_weight=20 38 54 37 22 20 20 29 20 56 21 356 35 20 20 28 198 21 4470 33 24 100 23
leaf_count=20 38 54 37 22 20 20 29 20 56 21 356 35 20 20 28 198 21 4470 33 24 100 23
internal_value=0.509044 0.510384 0.513156 0.510012 0.509816 0.512305 0.508875 0.510028 0.508834 0.510219 0.509479 0.510589 0.508805 0.510125 0.509222 0.508788 0.509223 0.508777 0.509101 0.509754 0.508756 0.508766
internal_weight=5665 634 75 559 537 64 5031 173 4858 98 473 89 4760 63 384 4697 77 4668 153 44 120 43
internal_count=5665 634 75 559 537 64 5031 173 4858 98 473 89 4760 63 384 4697 77 4668 153 44 120 43
is_linear=0
shrinkage=1


Tree=1
num_leaves=27
num_cat=0
split_feature=49 25 39 27 1 46 15 36 13 27 7 29 49 23 5 49 47 1 18 10 27 16 35 36 51 15
split_gain=0.554227 0.318955 0.199841 0.246724 0.169874 0.143291 0.232634 0.0679331 0.151915 0.104768 0.138607 0.0573167 0.108407 0.0567817 0.136505 0.0492659 0.0441094 0.0893507 0.01859 0.0724946 0.0163093 0.0158854 0.0153212 0.00123149 0.000640082 9.65944e-05
threshold=0.43831961070817588 -88.59028904747835 0.060995670994697465 3046.7590236877986 3381.579447307367 1.7564360253545375 0.03246379745917842 -0.004672150302869992 2812.4832500000007 3035.9604163781801 37.420862841316925 -6333.454999999999 0.48468932811571314 219.82931815053652 3111.1936667778396 0.49781306363964423 0.011558254575517181 3059.8742877029058 19.248348391292662 2.2813487783711701 2977.3636023571212 8.9664285714285548 0.0014513308190369225 -0.010254047053569358 0.36967334952845193 0.010607550645260212
decision_type=2 2 2 2 2 2 2 2 2 2 2 2 2 2 2 2 2 2 2 2 2 2 2 2 2 2
left_child=7 2 -2 -4 5 11 -7 8 -1 22 -11 12 -3 16 20 -13 18 24 19 -9 25 -20 23 -10 -18 -15
right_child=1 4 3 -5 -6 6 -8 13 9 10 -12 15 -14 14 -16 -17 17 -19 21 -21 -22 -23 -24 -25 -26 -27
leaf_value=0.0043293143195721013 0.0087773461011238403 0.0045165379368700088 0.00025582547638226637 0.0072936977935023602 0.0052007542902846697 0.0073288580713172756 -0.00011352201302846272 -0.00020497764677749678 -9.3124107130475957e-05 0.0040329622872475835 -0.00038936340441817749 -0.00029709553905223822 0.00048402939643710859 -0.00045687111697214494 0.0044317364142361015 0.00082173317295118154 -7.0473940577358012e-05 0.0038225881778635087 -0.00035931190306206612 0.0015670750261499334 0.0011068889934738929 -0.00010810203218025678 0.001080997558310628 -0.0004064192152265641 -0.00047049957327544695 -0.00059535152744501826
leaf_weight=24 20 25 33 20 23 21 21 515 37 37 34 178 50 34 22 220 20 20 3173 65 22 785 20 206 20 20
leaf_count=24 20 25 33 20 23 21 21 515 37 37 34 178 50 34 22 220 20 20 3173 65 22 785 20 206 20 20
internal_value=-4.98966e-06 0.00141737 0.00451867 0.00291163 0.000996566 0.000808806 0.00360767 -0.000176945 0.000486974 0.000210878 0.00191523 0.000560282 0.0018282 -0.000227559 0.000963358 0.000321352 -0.000252942 0.00109387 -0.000270749 -6.38554e-06 -4.06459e-05 -0.000309489 -0.000249232 -0.000358716 -0.000270487 -0.00050816
internal_weight=5665 611 73 53 538 515 42 5054 358 334 71 473 75 4696 98 398 4598 60 4538 580 76 3958 263 243 40 54
internal_count=5665 611 73 53 538 515 42 5054 358 334 71 473 75 4696 98 398 4598 60 4538 580 76 3958 263 243 40 54
is_linear=0
shrinkage=0.05


Tree=2
num_leaves=27
num_cat=0
split_feature=49 25 26 0 26 55 30 15 36 13 26 50 43 12 26 28 10 26 15 22 23 49 20 37 19 8
split_gain=0.50019 0.287857 0.341151 0.165805 0.0926355 0.0877845 0.0751624 0.130588 0.0613096 0.137103 0.080583 0.0640977 0.0541119 0.138033 0.266256 0.0435803 0.0366207 0.0307188 0.2045 0.030637 0.01371 0.0123151 0.0275792 0.0130194 0.00324026 0.000160165
threshold=0.43831961070817588 -88.59028904747835 -222032.0450000008 3380.0380900687342 -608048.94499999983 0.44922011694505587 1.3734484332596069 0.016111554607613387 -0.004672150302869992 2812.4832500000007 -551178.44500000041 0.060189394900773845 0.47153288326889992 3078.5360404730645 185607.81499999939 2.5764529788013411 -19.701460464358792 -568213.64500000037 0.0047288674391149947 6.8655031219274631 96.354563177492579 0.26615300974661321 10.534305934373693 -0.0075965436787540632 29.658218813385599 58.870040063396424
decision_type=2 2 2 2 2 2 2 2 2 2 2 2 2 2 2 2 2 2 2 2 2 2 2 2 2 2
left_child=8 2 -2 4 -3 -4 16 -8 9 -1 -11 -12 17 24 15 -15 -6 18 -10 -13 -20 23 -23 -19 -14 -26
right_child=1 3 5 -5 6 -7 7 -9 12 10 11 19 13 14 -16 -17 -18 21 20 -21 -22 22 -24 -25 25 -27
leaf_value=0.004112848565758517 0.0090289637781679633 0.0035623155234913739 0.0042505018191323395 0.0051977406594563621 0.0013970383210107685 -5.9802566344539321e-05 0.0046071159958454037 0.00076905371066420642 0.0048973518529568209 0.0031986753345422804 0.0023279030427888589 0.0015292661284784909 0.00021155421095697777 -0.00021507624456157479 0.0068328273567286411 0.0025313308043405417 2.7114725049815659e-05 0.00090322820026250109 -0.00041588569647824092 -0.0003737152152174213 0.00098298592027276752 0.0006392836000076404 -0.00022244594176264718 -0.00034597018917362199 -0.00029140450293198229 -0.00044280519148847763
leaf_weight=24 25 28 21 22 58 27 29 94 22 21 27 23 23 52 22 20 307 21 141 263 20 102 1035 3080 20 138
leaf_count=24 25 28 21 22 58 27 29 94 22 21 27 23 23 52 22 20 307 21 141 263 20 102 1035 3080 20 138
internal_value=-4.74018e-06 0.00134651 0.00429274 0.000946738 0.000765494 0.00182596 0.00060502 0.00167396 -0.000168098 0.000462626 0.000200334 -8.32583e-07 -0.000216181 0.000464347 0.00201878 0.000547815 0.000244801 -0.000258512 0.000375746 -0.000220678 -0.000242113 -0.0002859 -0.00014514 -0.000337511 -0.000342925 -0.000423641
internal_weight=5665 611 73 538 516 48 488 123 5054 358 334 313 4696 275 94 72 365 4421 183 286 161 4238 1137 3101 181 158
internal_count=5665 611 73 538 516 48 488 123 5054 358 334 313 4696 275 94 72 365 4421 183 286 161 4238 1137 3101 181 158
is_linear=0
shrinkage=0.05


Tree=3
num_leaves=29
num_cat=0
split_feature=49 25 58 0 46 15 15 78 0 43 27 29 49 49 37 55 28 6 0 50 27 27 20 20 16 1 55 50
split_gain=0.451421 0.259791 0.184077 0.149639 0.126139 0.204942 0.107246 0.0611677 0.0939538 0.0499707 0.113654 0.0479854 0.0972206 0.044195 0.040846 0.0959295 0.0352928 0.0316989 0.196508 0.0312846 0.0154813 0.241303 0.0295038 0.0119701 0.0391436 0.00489745 0.00153873 5.05726e-06
threshold=0.43831961070817588 -88.59028904747835 0.26702135053936965 3380.0380900687342 1.7564360253545375 0.03246379745917842 0.027782897884002563 0.11008116116567666 3325.6181625360327 -0.55684592671840238 3032.4777541025342 -6333.454999999999 0.48468932811571314 0.49781306363964423 0.01079798686111111 0.64554456640958524 1.6087055728338793 13.907721451706943 2926.6675797427733 0.043012500812453794 3045.4981950213669 3047.6446420901348 31.014485358163366 11.038007812255737 9.4364285714285341 2796.9339267223008 0.68179182750486578 0.066699189556030991
decision_type=2 2 2 2 2 2 2 2 2 2 2 2 2 2 2 2 2 2 2 2 2 2 2 2 2 2 2 2
left_child=7 2 -2 4 11 -6 -4 17 9 10 16 12 -3 -13 19 -16 -9 18 -1 -11 23 -22 -23 24 -19 -25 27 -20
right_child=1 3 6 -5 5 -7 -8 8 -10 14 -12 13 -14 -15 15 -17 -18 20 26 -21 21 22 -24 25 -26 -27 -28 -29
leaf_value=0.0050751328864134847 0.00059906218573451049 0.004199980583973229 0.0037160737959381477 0.0049378539435565479 0.0068461548625713305 -0.00013923249650923979 0.0084594087421216765 0.0016272957121292429 0.002840289066443802 0.0016186877442523836 0.0037670552569987444 -0.00031107839377102539 0.0003936986868068868 0.00074860634403938267 -0.00052419192609651124 0.0035103622770223486 -0.00039480569457609046 -0.00030780002308184628 -0.00043736309511587022 -0.00017593928177686978 0.0049730252413808006 -0.00036606854975818558 0.00062178990471808396 9.0861259851344807e-06 0.00092739069280273548 -0.00037432908036244919 7.1072705904953184e-05 -0.00040871241171635804
leaf_weight=20 25 25 26 22 21 21 22 31 32 25 29 178 51 220 34 26 71 341 20 848 23 576 87 86 79 2639 20 67
leaf_count=20 25 25 26 22 21 21 22 31 32 25 29 178 51 220 34 26 71 341 20 848 23 576 87 86 79 2639 20 67
internal_value=-4.50317e-06 0.00127918 0.0040781 0.000899401 0.000727219 0.00335346 0.0058901 -0.000159693 0.000170863 9.058e-05 0.00100503 0.000494514 0.00164577 0.000274677 -3.78161e-05 0.00122411 0.000219755 -0.000251227 0.00052593 -0.000124547 -0.00027699 -6.17787e-05 -0.00023644 -0.000323933 -7.54665e-05 -0.000362229 -0.000324388 -0.000415299
internal_weight=5665 611 73 538 516 42 48 5054 1096 1064 131 474 76 398 933 60 102 3958 127 873 3831 686 663 3145 420 2725 107 87
internal_count=5665 611 73 538 516 42 48 5054 1096 1064 131 474 76 398 933 60 102 3958 127 873 3831 686 663 3145 420 2725 107 87
is_linear=0
shrinkage=0.05


Tree=4
num_leaves=29
num_cat=0
split_feature=49 25 26 0 46 39 46 29 49 78 0 26 39 8 50 51 47 6 3 55 26 56 27 26 49 17 27 51
split_gain=0.407408 0.234461 0.307801 0.135049 0.114372 0.207725 0.105325 0.0595109 0.0981525 0.0552038 0.0847933 0.0548218 0.0937179 0.0471113 0.0394371 0.0779754 0.0392728 0.0286083 0.180358 0.0216122 0.0200975 0.213552 0.00965074 0.0463251 0.00956112 0.0015033 9.61355e-05 2.48655e-05
threshold=0.43831961070817588 -88.59028904747835 -263777.13000000076 3380.0380900687342 1.6456139384615851 0.28899130082628238 1.1834318103102519 -6333.454999999999 0.48468932811571314 0.11008116116567666 3325.6181625360327 -551178.44500000041 0.26318881810138811 26.870451268962572 0.060189394900773845 0.67046612294855079 0.01079798686111111 13.907721451706943 2938.0624581386296 0.56469423725367429 -568213.64500000037 -1.0000000180025095e-35 3049.8517182908704 -244763.08500000092 0.30626113601061145 3.8559523809523228 3047.5372045648724 0.78911704297656005
decision_type=2 2 2 2 2 2 2 2 2 2 2 2 2 2 2 2 2 2 2 2 2 2 2 2 2 2 2 2
left_child=9 2 -2 4 7 19 -4 8 -3 17 11 12 -11 -9 15 -13 -16 18 -1 -6 21 -19 24 -24 -22 -20 -23 -27
right_child=1 3 6 -5 5 -7 -8 13 -10 10 -12 14 -14 -15 16 -17 -18 20 25 -21 22 26 23 -25 -26 27 -28 -29
leaf_value=0.0048578923905733973 0.0088175034913795317 0.0044171405343703283 0.0042488613834037727 0.0046909609640186489 0.0018189398106187582 0.0064685958943775171 -0.00031758922684405532 0.0019586695061827252 0.00044462820709062121 -0.00033519191460476983 0.0026982746479916387 -0.00045189980349581065 0.0039589754179663343 -1.8809091643956694e-05 -0.00014200852990053228 0.0037753166584298019 0.0011891537641916994 0.0047418803138577423 7.588795619085432e-05 -0.0004065473137112956 -0.00033864127307130698 -0.00045539054145480977 -0.00024451501797884703 0.002347230794839561 -0.00011190960744476985 -0.00038930105045437819 -0.00057423990918323406 -0.00045079893157394101
leaf_weight=20 22 23 23 22 20 23 28 33 48 27 32 24 24 345 910 20 59 23 20 24 2978 114 125 20 551 65 20 22
leaf_count=20 22 23 23 22 20 23 28 33 48 27 32 24 24 345 910 20 59 23 20 24 2978 114 125 20 551 65 20 22
internal_value=-4.27802e-06 0.00121522 0.0038742 0.000854431 0.000690858 0.0026179 0.00174179 0.000403304 0.0017315 -0.000151709 0.00016232 8.6051e-05 0.00168559 0.000153828 5.52127e-06 0.00146956 -6.09574e-05 -0.000238666 0.000499634 0.000605038 -0.000263141 0.000290853 -0.000286814 0.000112967 -0.000303241 -0.000314994 -0.000473129 -0.000404852
internal_weight=5665 611 73 538 516 67 51 449 71 5054 1096 1064 51 378 1013 44 969 3958 127 44 3831 157 3674 145 3529 107 134 87
internal_count=5665 611 73 538 516 67 51 449 71 5054 1096 1064 51 378 1013 44 969 3958 127 44 3831 157 3674 145 3529 107 134 87
is_linear=0
shrinkage=0.05


Tree=5
num_leaves=16
num_cat=0
split_feature=1 49 21 26 78 18 46 54 43 27 26 29 4 7 27
split_gain=0.662379 0.347688 0.15821 0.302805 0.11464 0.131081 0.103985 0.161842 0.0643572 0.171688 0.0596157 0.0709918 0.037189 0.0318529 0.020693
threshold=3381.579447307367 0.43831961070817588 8.3291403379304434 -137501.46000000098 0.63373552519422394 42.103562437614947 1.7564360253545375 -0.52732327050118732 -0.55684592671840238 3032.4777541025342 -551178.44500000041 -6333.454999999999 3337.4364912082588 30.813896954978905 3049.8517182908704
decision_type=2 2 2 2 2 2 2 2 2 2 2 2 2 2 2
left_child=1 4 3 -3 8 -6 10 -8 9 13 -4 -12 14 -1 -10
right_child=-2 2 6 -5 5 -7 7 -9 12 -11 11 -13 -14 -15 -16
leaf_value=-0.00030157776475933044 0.0086751956556161691 0.0075988692974743371 0.0031984099737283863 0.00010540872712486557 0.0042654532082979715 -0.00065647694864310333 -9.2046716335144921e-06 0.0058708727303892379 -0.00023811523803688849 0.0047295891068642962 0.002013974004607324 0.00027540533467749052 0.0018912259356251787 0.0018938385765068233 0.00030544566791402281
leaf_weight=95 22 26 22 28 31 24 22 25 4613 24 69 394 21 20 182
leaf_count=95 22 26 22 28 31 24 22 25 4613 24 69 394 21 20 182
internal_value=1.63539e-05 -1.76872e-05 0.00113469 0.00371337 -0.000152477 0.0021177 0.000872948 0.0031185 -0.000177675 0.000883 0.000655338 0.000534501 -0.000208289 8.02338e-05 -0.000217484
internal_weight=5618 5596 586 54 5010 55 532 47 4955 139 485 463 4816 115 4795
internal_count=5618 5596 586 54 5010 55 532 47 4955 139 485 463 4816 115 4795
is_linear=0
shrinkage=0.05


Tree=6
num_leaves=23
num_cat=0
split_feature=26 49 21 37 39 46 35 21 28 28 27 49 18 17 49 24 18 27 20 36 17 16
split_gain=0.632 0.329139 0.145422 0.285941 0.176617 0.0771128 0.151659 0.129663 0.0724957 0.187356 0.0742348 0.101935 0.0482566 0.0506431 0.0303052 0.058114 0.0883147 0.0485609 0.0233047 0.00941716 0.00770829 0.000252026
threshold=229567.12999999992 0.43831961070817588 20.514026348482123 -0.0092522827028776438 0.092635707798387493 1.6456139384615851 0.0033906859894103918 48.754426743168366 3.2787400352282075 3.4095557894117716 2977.3636023571212 0.2608511683299512 21.174807643272249 12.501666666666694 0.28436746917315675 -170.94254382256136 40.209276801153493 3050.0394921367792 36.755940788025626 0.0069280598350368603 2.5373809523809134 10.411428571428525
decision_type=2 2 2 2 2 2 2 2 2 2 2 2 2 2 2 2 2 2 2 2 2 2
left_child=1 8 3 4 -3 12 7 -7 14 -10 21 -12 -4 -14 19 16 -16 -17 -6 20 -1 -11
right_child=-2 2 5 -5 18 6 -8 -9 9 10 11 -13 13 -15 15 17 -18 -19 -20 -21 -22 -23
leaf_value=0.00023237038818379381 0.0081119592728403703 0.0045416960763114116 0.0021863626003531477 0.0070250580586226925 0.0008871485081660311 0.0012080186069943011 -0.0010567436608570544 0.006833319625418101 0.0050965527855706492 -0.00042596467899094374 5.172024903004058e-05 0.0037670591597755753 0.002178360850760533 6.7059118966887932e-05 -2.7036740599821016e-05 -0.00010388551080805801 0.0042623568396084012 0.0019339725739943485 -0.00085623744525946681 0.00073899939838472923 -0.00028685428293582691 -0.00061814915505237883
leaf_weight=73 24 31 35 28 41 20 22 21 22 116 48 30 31 339 30 1144 20 30 36 23 3434 20
leaf_count=73 24 31 35 28 41 20 22 21 22 116 48 30 31 339 30 1144 20 30 36 23 3434 20
internal_value=1.55362e-05 -1.91999e-05 0.00108318 0.00252237 0.00135501 0.00066495 0.00229225 0.00408927 -0.000152634 0.000702727 0.000251026 0.0014807 0.000411815 0.000243952 -0.000195096 1.92894e-05 0.00168872 -5.18108e-05 7.2059e-05 -0.000269433 -0.000276046 -0.000454227
internal_weight=5618 5594 604 136 108 468 63 41 4990 236 214 78 405 370 4754 1224 50 1174 77 3530 3507 136
internal_count=5618 5594 604 136 108 468 63 41 4990 236 214 78 405 370 4754 1224 50 1174 77 3530 3507 136
is_linear=0
shrinkage=0.05


Tree=7
num_leaves=21
num_cat=0
split_feature=0 16 46 55 50 28 50 51 27 10 36 28 76 52 0 55 16 3 27 51
split_gain=0.5715 0.238365 0.130741 0.282415 0.147783 0.0882401 0.154525 0.0702389 0.143357 0.425108 0.125335 0.0505639 0.0457098 0.0377356 0.0316636 0.0652267 0.0104122 0.0423173 0.0073968 0.00116151
threshold=3380.0380900687342 12.646071428571435 1.7564360253545375 0.59789482413511819 0.11302749250874379 1.93855198279223 0.88187414324556757 0.68852396537739435 3048.9582111295749 -4.0341399705300125 0.0059552178069057779 0.3118817392645778 0.41386444197766231 5.5000000000000009 3327.2024014080566 0.52366032118757555 8.6217857142856786 3139.8552569524823 3046.7590236877986 0.82939957989499435
decision_type=2 2 2 2 2 2 2 2 2 2 2 2 2 2 2 2 2 2 2 2
left_child=1 7 4 -4 -3 11 -7 14 10 -10 13 -6 -5 -9 16 -16 18 -18 -1 -11
right_child=-2 2 3 12 5 6 -8 8 9 19 -12 -13 -14 -15 15 -17 17 -19 -20 -21
leaf_value=-0.00030763484361033246 0.0080576986921104526 0.0043147836023798352 0.0079132790956646208 -0.00079238625729213591 0.0012225604317340573 0.0056264443672262134 0.00040940762846730649 -0.00026892872265307235 0.0086168161235400473 -2.0332436542958022e-06 0.0037226515852481776 4.2105259755930013e-05 0.0024340827406073612 0.00064504005119747285 0.0032187055156100543 -0.00068554693792501227 -0.00023732059882000984 0.00073242151770768144 -0.00011812946726164715 -0.00053444607294208949
leaf_weight=2723 22 26 20 23 113 22 40 448 20 20 23 460 21 151 20 23 651 136 635 21
leaf_count=2723 22 26 20 23 113 22 40 448 20 20 23 460 21 151 20 23 651 136 635 21
internal_value=1.47594e-05 -1.68604e-05 0.000828988 0.00298682 0.000620061 0.000468781 0.00226061 -0.000142757 0.0003274 0.00264053 0.00010055 0.0002749 0.000747519 -3.85292e-05 -0.000219432 0.00113038 -0.000233435 -6.97413e-05 -0.000271799 -0.000274732
internal_weight=5618 5596 725 64 661 635 62 4871 683 61 622 573 44 599 4188 43 4145 787 3358 41
internal_count=5618 5596 725 64 661 635 62 4871 683 61 622 573 44 599 4188 43 4145 787 3358 41
is_linear=0
shrinkage=0.05


Tree=8
num_leaves=23
num_cat=0
split_feature=1 16 13 22 39 2 7 30 51 19 27 9 50 0 9 29 35 40 40 18 11 43
split_gain=0.524153 0.214252 0.13163 0.158124 0.179476 0.166934 0.157907 0.10367 0.0633906 0.130093 0.147947 0.386236 0.0337244 0.0285764 0.0622268 0.00974028 0.0592041 0.0080387 0.00507384 0.00247406 0.00163613 0.0011191
threshold=3381.579447307367 12.646071428571435 3186.1375000000003 13.345627287509933 0.11475409835850107 3177.9023059441029 22.615096673224134 1.4244338337491362 0.68852396537739435 39.460815112708325 3048.9582111295749 -4.6930391700518603 0.043012500812453794 3327.2024014080566 7.3800431154811585 -4687.8949999999995 0.0014513308190369225 0.85075901327397174 0.56689556556404608 27.6235031031954 0.38823330201292988 -0.55684592671840238
decision_type=2 2 2 2 2 2 2 2 2 2 2 2 2 2 2 2 2 2 2 2 2 2
left_child=1 8 3 4 -3 7 -6 -5 13 10 12 -12 -10 15 -15 16 -1 -17 19 20 -4 -21
right_child=-2 2 18 5 6 -7 -8 -9 9 -11 11 -13 -14 14 -16 17 -18 -19 -20 21 -22 -23
leaf_value=-0.00024460490146009005 0.0077165897385301913 0.0073741072192206047 0.00010670208954252302 0.00022859273230599754 -0.00054222964060803263 0.0051942139808532038 0.0051108516708371189 0.0020023309875923756 0.0017170820528498061 0.0042841138609219344 0.0082323032361455266 -0.00027765147038735452 -0.00012380047729545544 0.0031135993148200215 -0.00069981663508097763 -0.00024186175302012966 0.0027067227859515698 0.0005796848144382238 0.00028592255409984362 -0.00093891496754026622 -0.00051815036514943293 -0.00057383006133022725
leaf_weight=113 22 20 20 358 30 21 21 107 26 20 20 40 577 20 23 3982 20 30 21 29 22 76
leaf_count=113 22 20 20 358 30 21 21 107 26 20 20 40 577 20 23 3982 20 30 21 29 22 76
internal_value=1.40215e-05 -1.62603e-05 0.000785664 0.00115567 0.00335976 0.000833671 0.00178551 0.000636743 -0.000135619 0.00031103 0.000191178 0.002559 -4.44258e-05 -0.000208461 0.00107387 -0.000221763 0.000199204 -0.000235719 -0.000441074 -0.000544931 -0.000220602 -0.000674663
internal_weight=5618 5596 725 557 71 486 51 465 4871 683 663 60 603 4188 43 4145 133 4012 168 147 42 105
internal_count=5618 5596 725 557 71 486 51 465 4871 683 663 60 603 4188 43 4145 133 4012 168 147 42 105
is_linear=0
shrinkage=0.05


Tree=9
num_leaves=20
num_cat=0
split_feature=26 49 21 26 26 20 7 36 35 38 51 28 26 29 55 40 18 59 40
split_gain=0.546961 0.236713 0.124691 0.257123 0.0794194 0.0725143 0.138246 0.0811471 0.0623091 0.328682 0.0334811 0.0888802 0.0495993 0.0164144 0.09334 0.00729626 0.00158594 0.00222405 0.000164208
threshold=229567.12999999992 0.43831961070817588 8.3291403379304434 -137501.46000000098 -551178.44500000041 33.817389621790973 34.834919664939363 -0.0015688014050674324 -0.0031814750602765503 0.69700021805845758 0.75805038408497583 3.2787400352282075 -272402.0900000009 -4687.8949999999995 0.070082190590509644 0.85075901327397174 34.143483615785676 0.46914845729683269 0.14379280821571075
decision_type=2 2 2 2 2 2 2 2 2 2 2 2 2 2 2 2 2 2 2
left_child=1 8 3 -3 -4 7 -7 -6 9 -1 13 12 -12 14 -10 -15 17 -11 -18
right_child=-2 2 4 -5 5 6 -8 -9 10 16 11 -13 -14 15 -16 -17 18 -19 -20
leaf_value=0.0055475157243199645 0.007545362471137196 0.0067890440722784178 0.0031922283299112074 -0.00011607877677306534 -0.00072419035480407099 0.000600169855169952 0.0055634701158851392 0.00074851588152763892 0.0033974436278055818 0.00024305234685362807 0.0015250585343250457 0.0027692907038726847 -0.00012249647347058795 -0.00023187075212795832 -0.00019907628247892717 0.0005507005207861463 -0.00060964465305647436 -0.00040781482122838499 -0.00043181706042516799
leaf_weight=30 24 26 30 28 132 47 20 321 21 21 51 32 438 4149 128 30 34 35 21
leaf_count=30 24 26 30 28 132 47 20 321 21 21 51 32 438 4149 128 30 34 35 21
internal_value=1.33204e-05 -1.89944e-05 0.000915877 0.00320861 0.000690772 0.000546457 0.00208175 0.000319383 -0.000132153 0.000903971 -0.000162282 0.000216395 4.93344e-05 -0.000207866 0.000307816 -0.000226253 -0.000351041 -0.00016374 -0.000541747
internal_weight=5618 5594 604 54 550 520 67 453 4990 141 4849 521 489 4328 149 4179 111 56 55
internal_count=5618 5594 604 54 550 520 67 453 4990 141 4849 521 489 4328 149 4179 111 56 55
is_linear=0
shrinkage=0.05


Tree=10
num_leaves=16
num_cat=0
split_feature=26 17 19 26 17 78 15 59 3 39 5 17 18 78 51
split_gain=0.275712 0.112811 0.12264 0.548707 0.10416 0.083638 0.116345 0.0817748 0.0291196 0.0164577 0.0225157 0.00879412 0.00767038 0.0593555 0.00161953
threshold=229567.12999999992 7.7326190476190151 6.8635715357855931 -266482.04000000079 7.8119047619047279 0.39833548046877904 0.010143648624570916 0.15884689534262156 3318.5613334736713 0.030131162949267258 2911.3184668605968 2.4419047619047394 16.342614802996909 0.044191317388831912 0.67046612294855079
decision_type=2 2 2 2 2 2 2 2 2 2 2 2 2 2 2
left_child=1 8 3 -3 -4 7 -7 -6 11 -5 -11 -1 13 -13 -14
right_child=-2 2 4 9 5 6 -8 -9 -10 10 -12 12 14 -15 -16
leaf_value=0.000503066427834136 0.0055590338285335088 0.0082016998059071533 0.0027580723713932411 0.0013410914037376644 0.0011911563970374338 0.0046880524733569481 0.00066010420726453399 -9.6129166733443432e-05 0.0016148698239010714 0.0011953392380382867 -0.00073785307840062465 -0.00034866276606221065 -0.00026618931054238104 0.0026188690634444357 -0.00039096108665332872
leaf_weight=38 22 26 37 20 132 20 173 1887 21 20 61 107 2772 20 287
leaf_count=38 22 26 37 20 132 20 173 1887 21 20 61 107 2772 20 287
internal_value=-2.74457e-05 -4.93106e-05 0.000212461 0.00172412 0.000127099 8.30904e-05 0.00107751 -1.19679e-05 -0.000240981 5.66295e-05 -0.000260522 -0.000253069 -0.000262088 0.000118665 -0.000277896
internal_weight=5643 5621 2376 127 2249 2212 193 2019 3245 101 81 3224 3186 127 3059
internal_count=5643 5621 2376 127 2249 2212 193 2019 3245 101 81 3224 3186 127 3059
is_linear=0
shrinkage=0.05


Tree=11
num_leaves=15
num_cat=0
split_feature=26 43 26 17 1 17 17 46 50 29 9 1 17 18
split_gain=0.24883 0.120099 0.22539 0.0746528 0.0562364 0.0503837 0.116187 0.0658764 0.0917523 0.0486731 0.0418767 0.0270113 0.00794553 0.00694319
threshold=229567.12999999992 -0.55684592671840238 -459323.89000000048 22.425238095238104 2801.1825423448627 7.7326190476190151 7.8119047619047279 1.2622783718606276 0.29909476966745213 3843.3500000000004 -5.4722663591473966 3320.9528796441714 2.4419047619047394 16.342614802996909
decision_type=2 2 2 2 2 2 2 2 2 2 2 2 2 2
left_child=1 2 -1 4 -4 11 -7 9 -9 -8 -6 12 -3 -14
right_child=-2 5 3 -5 10 6 7 8 -10 -11 -12 -13 13 -15
leaf_value=0.0056507289267914455 0.005281081931157546 0.00047791311823713943 0.0028623021312523637 0.0033271988874978642 -0.00017221728202832095 0.0027903050918561909 -0.00016563913492597524 0.0031330216170421671 0.00040359809255221537 0.00073671503432595992 0.0014859816423900751 0.0015583463312525835 0.00011273184571209857 -0.00026465237247789964
leaf_weight=23 22 38 20 22 221 39 1585 35 256 165 46 21 127 3023
leaf_count=23 22 38 20 22 221 39 1585 35 256 165 46 21 127 3023
internal_value=-2.60734e-05 -4.68451e-05 0.000875621 0.000520193 0.000305022 -0.00010475 8.69321e-05 3.52753e-05 0.000731879 -8.056e-05 0.000113465 -0.000228994 -0.000240767 -0.000249437
internal_weight=5643 5621 332 309 287 5289 2080 2041 291 1750 267 3209 3188 3150
internal_count=5643 5621 332 309 287 5289 2080 2041 291 1750 267 3209 3188 3150
is_linear=0
shrinkage=0.05


end of trees

feature_importances:
obv=22
vwap=16
volatility_norm=16
ema_5=13
atr_21=10
atr_ratio=9
bb_width=8
atr_14=8
adx=8
dist_to_support=8
dist_to_resistance=8
trend_quality=8
ema_10=7
volume_ma_ratio=7
volume_delta=7
williams_r=6
pct_change_5=6
upper_wick_ratio=6
price_vs_ema_20=6
minus_di=5
lower_wick_ratio=5
htf_volume_trend=5
rsi_14=4
stoch_k=4
pct_change_1=4
ema_50=3
macd=3
macd_signal=3
bb_middle=3
plus_di=3
cci_14=3
pct_change_10=3
momentum_10=3
ema_200=2
rsi_7=2
rsi_21=2
stoch_d=2
cci_20=2
volume_trend=2
swing_high_count=2
consolidation=2
ema_20=1
ema_100=1
macd_histogram=1
bb_upper=1
bb_lower=1
body_ratio=1
price_vs_ema_50=1
price_position_ema=1
structural_bias=1
breakout_probability=1
htf_bb_position=1

parameters:
[boosting: gbdt]
[objective: regression]
[metric: rmse]
[tree_learner: serial]
[device_type: cpu]
[data_sample_strategy: bagging]
[data: ]
[valid: ]
[num_iterations: 500]
[learning_rate: 0.05]
[num_leaves: 31]
[num_threads: 4]
[seed: 0]
[deterministic: 0]
[force_col_wise: 0]
[force_row_wise: 0]
[histogram_pool_size: -1]
[max_depth: 6]
[min_data_in_leaf: 20]
[min_sum_hessian_in_leaf: 0.001]
[bagging_fraction: 0.8]
[pos_bagging_fraction: 1]
[neg_bagging_fraction: 1]
[bagging_freq: 5]
[bagging_seed: 3]
[bagging_by_query: 0]
[feature_fraction: 0.8]
[feature_fraction_bynode: 1]
[feature_fraction_seed: 2]
[extra_trees: 0]
[extra_seed: 6]
[early_stopping_round: 0]
[early_stopping_min_delta: 0]
[first_metric_only: 0]
[max_delta_step: 0]
[lambda_l1: 0]
[lambda_l2: 0]
[linear_lambda: 0]
[min_gain_to_split: 0]
[drop_rate: 0.1]
[max_drop: 50]
[skip_drop: 0.5]
[xgboost_dart_mode: 0]
[uniform_drop: 0]
[drop_seed: 4]
[top_rate: 0.2]
[other_rate: 0.1]
[min_data_per_group: 100]
[max_cat_threshold: 32]
[cat_l2: 10]
[cat_smooth: 10]
[max_cat_to_onehot: 4]
[top_k: 20]
[monotone_constraints: ]
[monotone_constraints_method: basic]
[monotone_penalty: 0]
[feature_contri: ]
[forcedsplits_filename: ]
[refit_decay_rate: 0.9]
[cegb_tradeoff: 1]
[cegb_penalty_split: 0]
[cegb_penalty_feature_lazy: ]
[cegb_penalty_feature_coupled: ]
[path_smooth: 0]
[interaction_constraints: ]
[verbosity: -1]
[saved_feature_importance_type: 0]
[use_quantized_grad: 0]
[num_grad_quant_bins: 4]
[quant_train_renew_leaf: 0]
[stochastic_rounding: 1]
[linear_tree: 0]
[max_bin: 255]
[max_bin_by_feature: ]
[min_data_in_bin: 3]
[bin_construct_sample_cnt: 200000]
[data_random_seed: 1]
[is_enable_sparse: 1]
[enable_bundle: 1]
[use_missing: 1]
[zero_as_missing: 0]
[feature_pre_filter: 1]
[pre_partition: 0]
[two_round: 0]
[header: 0]
[label_column: ]
[weight_column: ]
[group_column: ]
[ignore_column: ]
[categorical_feature: ]
[forcedbins_filename: ]
[precise_float_parser: 0]
[parser_config_file: ]
[objective_seed: 5]
[num_class: 1]
[is_unbalance: 0]
[scale_pos_weight: 1]
[sigmoid: 1]
[boost_from_average: 1]
[reg_sqrt: 0]
[alpha: 0.9]
[fair_c: 1]
[poisson_max_delta_step: 0.7]
[tweedie_variance_power: 1.5]
[lambdarank_truncation_level: 30]
[lambdarank_norm: 1]
[label_gain: ]
[lambdarank_position_bias_regularization: 0]
[eval_at: ]
[multi_error_top_k: 1]
[auc_mu_weights: ]
[num_machines: 1]
[local_listen_port: 12400]
[time_out: 120]
[machine_list_filename: ]
[machines: ]
[gpu_platform_id: -1]
[gpu_device_id: -1]
[gpu_use_dp: 0]
[num_gpu: 1]

end of parameters

pandas_categorical:[]
