tree
version=v4
num_class=4
num_tree_per_iteration=4
label_index=0
max_feature_idx=80
objective=multiclass num_class:4
feature_names=ema_5 ema_10 ema_20 ema_50 ema_100 ema_200 rsi_7 rsi_14 rsi_21 macd macd_signal macd_histogram bb_upper bb_middle bb_lower bb_width atr_14 atr_21 adx plus_di minus_di stoch_k stoch_d cci_14 cci_20 williams_r obv vwap volume_ma_ratio volume_delta volume_trend higher_high lower_low consecutive_up consecutive_down pct_change_1 pct_change_5 pct_change_10 body_ratio upper_wick_ratio lower_wick_ratio ema_cross_5_20 ema_cross_10_50 price_vs_ema_20 price_vs_ema_50 bb_position atr_ratio momentum_10 trend_strength volatility_norm dist_to_support dist_to_resistance swing_high_count swing_low_count price_position_ema trend_quality structural_bias near_key_level breakout_probability consolidation htf_ema_20 htf_ema_50 htf_rsi htf_macd htf_macd_signal htf_macd_hist htf_bb_upper htf_bb_lower htf_bb_middle htf_adx htf_atr htf_volume_ma mtf_trend_aligned htf_ema_trend mtf_rsi_diff mtf_momentum_agreement htf_bb_position htf_macd_direction htf_volume_trend mtf_volatility_ratio mtf_score
feature_infos=[2729.2590660399637:3407.438786878738] [2736.0120937117467:3400.0653903150146] [2740.197362453348:3394.1045416059815] [2745.7762131820823:3379.390183212447] [2745.992352459572:3362.138757692815] [2746.1119075527372:3341.86529635434] [0:99.20212765957433] [0:94.538693934464504] [0.75506051194189183:94.051914794552317] [-45.171979795254174:58.559303477356934] [-39.760183781587259:53.658305248287846] [-13.252391838528091:14.52834533413106] [2749.8796702719851:3435.4758274814062] [2735.4845:3393.6394999999998] [2691.4050327541381:3362.9248832823541] [0.0013243906802045411:0.092526841063542795] [1.7664285714285077:34.952857142857091] [1.8599999999999541:32.572380952380975] [8.502363943967703:94.670653079043447] [0.33689442103030798:101.97756243212028] [0.24691700030708424:89.581785468886864] [0:99.999999999839872] [1.8566853602659803:97.6438870708959] [-401.99088739097249:447.28334751272871] [-434.22360736246054:538.22758967780101] [-99.999999999649873:0] [-686362.56000000041:271696.71999999904] [2744.4653244518308:3052.038151735926] [0.062708260727949883:14.853261221250813] [-70957.820000000007:69946.809999999998] [0.15958238947593512:3.5802519443923133] [0:5] [0:5] [0:5] [0:5] [-0.018877820260877143:0.017667212773703644] [-0.034555888223552822:0.03275316805626205] [-0.050319330995703182:0.050602078864030897] [0:0.99999999998890121] [0:0.9870129868851103] [0:0.99999999995633182] [0:1] [0:1] [-3.0349288801895842:3.1257839867174462] [-4.5987076900781672:5.3225351367022711] [-0.44041838269697287:1.5047402994866028] [0.49834842420238323:2.515334033265185] [-0.050319330995703182:0.050602078864030897] [0.085023639439677029:0.94670653079043443] [0.057238215593419128:1.03872406798427] [0:8.6484269417576041] [0:7.0245295995203447] [2:9] [1:9] [-4.5987076900781672:5.3225351367022711] [1.1515647435622611e-08:0.96299386760405137] [-1:1] [0:1] [0.016220725152955046:0.98799999999999999] [0:0.76560319195984428] none none none none none none none none none none none none [0:1] none [-27.569537998256493:66.969155936208011] [0:1] [0:1] none [0.0018469336744364366:3] [1.0669830654675707:2] [0.5:0.94999999999999996]
tree_sizes=2396 1410 972 1072 2389 2409 1988 1951 3003 3178 2837 2046 3053 3429 3179 2509 3171 2957 2743 2504 2533 3411 2531 2500 2525 3424 2209 2395 2525 2726 2311 2831 2626 3273 2309 2523 2418 3066 2325 2426 2967 3394 2535 2540 3502 3489 3223 3098 3342 3062 2847 2442 3505 3386 3117 2874 3501 3068 3390 2877 2741 3392 2971 2283 2806 3388 2973 2437 2747 3501 3192 2442 2963 3499 3522 2441 2744 3436 3016 2956 3478 2427 2644 2439 2858 2428 2646 2424 3462 2428 2647 2741 2639 3420 2757 2763 2647 3293 2748 2543 3473 2963 3173 2330 3304 2972 3078 3383 2979 3433 3517 2438 3475 3292 2862 2329 3099 3443 3466 2445 3093 3085 2766 2551 2973 3089 2653 2665 3099 3425 3489 2554 2980 2978 2658 2439 2992 2981 2762 2442 3211 3444 2998 1969 3218 3084 3323 3252 3328 3097 3492 2085 3216 3091 2987 2084 3470 3103 2999 2232 2897 2975 2884 2233 2994 3215 2887 2233 3366 2984 2772 2557 2339 2977 2770 2671 2675 2871 3483 2606 2539 3461 2887 2188 3492 3416 3446 2339 2546 3415 3396 2232 2860 3423 2995 2350 2868 3424 2771 3522 3009 2566 2671 2741 2671 2785 2883 1783 2448 2775 2879 2238 2823 3462 2889 2643 2457 2689 2771 2236 2418 3223 2970 3328 2856 3221 2986 2019 3476 3467 2985 1677 3504 3104 2986 2017 2557 3220 3203 2021 2351 2678 3216 2162 2567 3110 3315 2247 2572 2896 3207 1869 2457 3005 3224 2883 2577 3226 3208 2672 2674 3551 2903 1962 2675 3509 3001 1782 2673 3511 3014 1895 3538 3235 2877 1782 2577 3234 2899 2593 3100 3310 3127 2208 3422 3066 2686 2994 3389 3177 2356 2865 3554 3539 2885 2976 3509 3545 2121 2315 3032 3535 3001 2457 3152 3493 3235 2452 3145 3424 3001 2110 3135 3529 3007 2235 3024 3430 3508 2113 3551 3506 3129 2702 3128 3500 3124 1889 3568 3222 3086 2800 3558 3337 3539 2936 2920 3225 3311 2705 3465 3557 3006 1772 3561 3566 3020 2449 3034 3557 3238 2340 3533 3554 3024 2340 3466 3566 3117 2350 3564 3562 2682 2217 3552 3567 3469 2227 3209 3583 3580 3019 3441 3373 2917 2007 3125 3581 2484 2115 3053 3557 3358 2148 3347 3559 3353 2153 3586 3336 3356 2480 3037 3149 3365 2372 3156 3348 3137 2253 3562 3359 2933 2687 3275 3586 3054 2807 3134 3156 3507 2700 3023 3367 3170 3138 3133 3560 3384 3033

Tree=0
num_leaves=22
num_cat=0
split_feature=16 13 16 16 1 0 16 16 0 16 0 4 44 39 0 0 0 0 0 1 0
split_gain=3812.38 76.4009 89.8431 49.6701 92.6702 24.4173 24.9394 10.3299 1.81855 1.54935 9.12344 1.11332 0.580423 0.214957 4.54747e-13 1.13687e-13 1.13687e-13 1.42109e-14 7.10543e-15 7.10543e-15 3.55271e-15
threshold=4.9453571428571363 2949.1482500000006 4.5625000000000169 5.251785714285738 3189.3508349347508 3057.4623838951179 5.1242857142857003 4.9250000000000203 2954.8911598067994 5.4171428571428848 3204.3831712373385 2846.4813951131405 0.23789321676904812 0.81603041012546895 3191.7041298957174 3325.6181625360327 2940.9949128758049 2837.7974056340149 3026.7288887378863 3366.4141463829433 3062.5142640564568
decision_type=2 2 2 2 2 2 2 2 2 2 2 2 2 2 2 2 2 2 2 2 2
left_child=1 2 17 4 5 12 -7 8 -3 10 20 -4 18 14 -10 16 -11 -1 -2 -17 -5
right_child=3 7 11 9 -6 6 -8 -9 13 15 -12 -13 -14 -15 -16 19 -18 -19 -20 -21 -22
leaf_value=-1.3453965639864069 -1.5642544677180839 -1.3766619788052179 -1.5642544677180839 -1.5642544677180839 -1.3453965639864069 -1.4001110399193262 -1.5543063811848257 -1.4219968302924939 -1.3453965639864069 -1.5642544677180839 -1.4876542014119969 -1.5314257821583321 -1.5467458354195496 -1.3563394591729907 -1.3453965639864069 -1.5642544677180839 -1.5642544677180839 -1.3453965639864069 -1.5642544677180839 -1.5642544677180839 -1.5642544677180839
leaf_weight=5.4830095767974871 18.96207478642464 4.7976333796977988 5.9399270415306074 19.190533518791206 7.0822207033634177 5.4830095767974836 5.0260921120643616 4.5691746473312369 233.25636574625969 269.12438672780991 4.5691746473312369 4.5691746473312378 5.7114683091640464 4.5691746473312369 18.505157321691513 24.21662563085556 622.77850443124771 5.4830095767974854 8.68143182992935 9.3668080270290357 6.8537619709968558
leaf_count=24 83 21 26 84 31 24 22 20 1021 1178 20 20 25 20 81 106 2726 24 38 41 30
internal_value=-1.5155 -1.3548 -1.44551 -1.56133 -1.51322 -1.54032 -1.47386 -1.34747 -1.34616 -1.56389 -1.55282 -1.54998 -1.56126 -1.34559 -1.3454 -1.56425 -1.56425 -1.3454 -1.56425 -1.56425 -1.56425
internal_weight=1294.22 287.173 21.4751 1007.05 50.9463 43.8641 10.5091 265.698 261.128 956.1 30.6135 10.5091 33.355 256.331 251.762 925.486 891.903 10.966 27.6435 33.5834 26.0443
internal_count=5665 1257 94 4408 223 192 46 1163 1143 4185 134 46 146 1122 1102 4051 3904 48 121 147 114
is_linear=0
shrinkage=1


Tree=1
num_leaves=12
num_cat=0
split_feature=49 49 49 29 49 1 1 1 2 1 10
split_gain=1606.36 2621.5 3.44013 2.03929 0.135514 2.27374e-13 2.27374e-13 1.13687e-13 1.13687e-13 5.68434e-14 5.68434e-14
threshold=0.32595631145317827 0.1627349306414885 0.16429465578418634 55.489999999999974 0.32359145210162082 3359.184084399451 2921.5940395881244 3312.91882499246 3046.7359801879679 2910.6923510893221 1.7058337346247339
decision_type=2 2 2 2 2 2 2 2 2 2 2
left_child=1 7 3 -3 6 -2 9 8 -1 -4 -10
right_child=5 2 4 -5 -6 -7 -8 -9 10 -11 -12
leaf_value=-0.73393135940458776 -0.73393135940458776 -0.59054394099499818 -0.58371596868977971 -0.62878058590422214 -0.59054394099499818 -0.73393135940458776 -0.58371596868977971 -0.73393135940458776 -0.73393135940458776 -0.58371596868977971 -0.73393135940458776
leaf_weight=239.6558690071106 480.97601488232613 7.3228182196617109 177.41191413998604 6.6571074724197388 7.3228182196617118 16.30991330742836 752.91885513067245 12.648504197597502 119.8279345035553 18.972756296396255 45.601186186075211
leaf_count=720 1445 22 533 20 22 49 2262 38 360 57 137
internal_value=-0.656822 -0.629202 -0.584128 -0.608752 -0.583768 -0.733931 -0.583716 -0.733931 -0.733931 -0.583716 -0.733931
internal_weight=1885.63 1388.34 970.606 13.9799 956.626 497.286 949.304 417.733 405.085 196.385 165.429
internal_count=5665 4171 2916 42 2874 1494 2852 1255 1217 590 497
is_linear=0
shrinkage=1


Tree=2
num_leaves=8
num_cat=0
split_feature=49 49 49 49 0 1 0
split_gain=3342.34 904.71 8.59082 0.199871 4.54747e-13 4.54747e-13 7.10543e-15
threshold=0.32595631145317827 0.5566830143701883 0.56721850296063858 0.32359145210162082 3325.6181625360327 3156.3807532799642 3147.5528477321727
decision_type=2 2 2 2 2 2 2
left_child=3 4 -3 -1 5 -2 -4
right_child=1 2 6 -5 -6 -7 -8
leaf_value=-1.5777305539107833 -1.3567062703383197 -1.5104622936930769 -1.5777305539107833 -1.5676839955665804 -1.3567062703383197 -1.3567062703383197 -1.5777305539107833
leaf_weight=938.58466471731663 212.19388177990913 5.203048273921012 40.040849760174751 4.9768287837505332 15.156705841422079 51.351824268698692 14.025608390569685
leaf_count=4149 938 23 177 22 67 227 62
internal_value=-1.52935 -1.39443 -1.57183 -1.57768 -1.35671 -1.35671 -1.57773
internal_weight=1281.53 337.972 59.2695 943.561 278.702 263.546 54.0665
internal_count=5665 1494 262 4171 1232 1165 239
is_linear=0
shrinkage=1


Tree=3
num_leaves=9
num_cat=0
split_feature=49 49 0 0 0 0 3 5
split_gain=4134.7 33.9465 4.54747e-13 4.54747e-13 1.13687e-13 2.84217e-14 8.88178e-16 2.22045e-16
threshold=0.5566830143701883 0.56721850296063858 3380.0380900687342 3112.6138993263826 3214.0840465442939 3319.3016581050838 3330.6563648694828 3336.6414257867577
decision_type=2 2 2 2 2 2 2 2
left_child=5 -2 3 -3 -5 -1 -7 -8
right_child=1 2 -4 4 -6 6 7 -9
leaf_value=-3.1412882530321569 -2.5337236376252736 -2.2679141183847618 -2.2679141183847635 -2.2679141183847635 -2.2679141183847626 -3.1412882530321569 -3.1412882530321569 -3.1412882530321569
leaf_weight=299.06999385356903 1.3167323619127262 9.6178711652755684 1.2022338956594474 1.4312308281660091 1.4312308281660078 7.0416556745767576 1.7747262269258499 1.431230828166008
leaf_count=5224 23 168 21 25 25 123 31 25
internal_value=-3.10197 -2.29125 -2.26791 -2.26791 -2.26791 -3.14129 -3.14129 -3.14129
internal_weight=324.317 14.9993 13.6826 12.4803 2.86246 309.318 10.2476 3.20596
internal_count=5665 262 239 218 50 5403 179 56
is_linear=0
shrinkage=1


Tree=4
num_leaves=21
num_cat=0
split_feature=49 49 29 16 49 26 18 49 39 27 49 27 49 46 16 16 49 0 0 0
split_gain=3500.96 4.69971 2.76863 0.155046 0.0633157 0.0322274 0.010291 0.00811554 0.00236205 0.00148902 0.000341919 0.000321721 0.000245598 1.90627e-05 1.87677e-05 4.34471e-06 1.05861e-07 4.54747e-13 2.84217e-14 7.10543e-15
threshold=0.1627349306414885 0.16429465578418634 55.489999999999974 4.9250000000000203 0.15721744952849492 -285904.0250000009 28.352179067029784 0.32595631145317827 0.80142147073833481 2891.0476991454125 0.16805173046478722 3043.630564497555 0.56721850296063858 0.83517316859420676 4.9453571428571363 5.251785714285738 0.5566830143701883 3242.1511586567317 3236.449031842722 3380.0380900687342
decision_type=2 2 2 2 2 2 2 2 2 2 2 2 2 2 2 2 2 2 2 2
left_child=3 2 -2 5 -5 -1 -6 10 9 -7 11 13 16 -3 -12 -16 18 -11 -9 -14
right_child=1 7 -4 4 6 8 -8 12 -10 17 14 -13 19 -15 15 -17 -18 -19 -20 -21
leaf_value=0.1458919374256083 -0.038177758474392476 -0.047378242311004383 0.015210109026494327 0.14381376244122099 0.15170525296877474 0.1433213620750636 0.1485343337015744 -0.047550108603505621 0.14366511214173927 0.14256715308907209 -0.047313185777659784 -0.047735445971519838 -0.047432600038329782 -0.047250065284355998 -0.04723968091689959 -0.047217482048415645 -0.047557369386980415 0.14256715308907209 -0.047550108603505621 -0.047432600038329782
leaf_weight=7.6378967761993399 5.0288303047418577 4.3991682380437878 4.6961296945810318 6.6820537447929409 4.9612736701965314 6.6966854035854331 5.2838458269834518 245.36168003082275 5.1437402069568625 275.26286780834198 5.2597565054893485 6.0546599328517905 48.121113270521164 8.5158402770757657 22.912938192486763 579.47726957499981 5.1138334274291983 12.147750973701475 28.447731018066406 4.6355200856924048
leaf_count=30 22 20 20 26 20 26 21 1104 20 1065 24 27 218 39 105 2659 23 47 128 21
internal_value=0.000625838 -0.0469806 -0.0123971 0.142942 0.1476 0.142685 0.15007 -0.0473315 0.142603 0.142584 -0.0472257 -0.0474347 -0.0475315 -0.0472937 -0.0472191 -0.0472183 -0.0475502 0.142567 -0.0475501 -0.0474326
internal_weight=1291.84 968.024 9.72496 323.816 16.9272 306.889 10.2451 958.3 299.251 294.107 626.62 18.9697 331.68 12.915 607.65 602.39 278.923 287.411 273.809 52.7566
internal_count=5665 4410 42 1255 67 1188 41 4368 1158 1138 2874 86 1494 59 2788 2764 1255 1112 1232 239
is_linear=0
shrinkage=0.05


Tree=5
num_leaves=21
num_cat=0
split_feature=49 49 49 29 49 49 49 13 49 27 26 49 8 40 39 49 49 0 0 11
split_gain=1406.45 2312.27 2.87667 1.86672 0.123267 0.0105628 0.0036248 0.00295847 0.00100349 0.000946987 0.0007131 0.000208112 0.000291522 0.000110825 8.80703e-05 2.11237e-05 4.58894e-06 2.27374e-13 2.84217e-14 3.55271e-15
threshold=0.32595631145317827 0.1627349306414885 0.16429465578418634 55.489999999999974 0.32359145210162082 0.56721850296063858 0.15807568450678092 3037.4765000000002 0.16805173046478722 3043.630564497555 -596678.42999999982 0.15648853619092967 56.498200463213344 0.1536074513288235 0.80142147073833481 0.17516489401068133 0.5566830143701883 3129.0744244567186 3214.0840465442939 -0.21097470673910965
decision_type=2 2 2 2 2 2 2 2 2 2 2 2 2 2 2 2 2 2 2 2
left_child=1 6 3 -3 8 16 10 13 9 -4 -1 14 -13 -8 -12 -10 17 -2 -7 -20
right_child=5 2 4 -5 -6 18 7 -9 15 -11 11 12 -14 -15 -16 -17 -18 -19 19 -21
leaf_value=-0.07327984656579381 -0.072796937008834439 0.06290354193988186 0.06845956192294754 0.026265623351579587 0.061827384481035988 -0.072169033633009791 -0.072809759945518471 -0.0739533512473044 0.068381842295693912 0.069081277638193411 -0.07279191514596807 -0.072788080915070608 -0.073231857922758034 -0.073081035865574032 -0.072975391040192503 0.068351250848668485 -0.072835996942443887 -0.072796937008834439 -0.072169033633009791 -0.072169033633009791
leaf_weight=7.9949380159378043 296.72799101471901 7.2894554138183576 19.486855268478397 6.6466930210590363 7.2717351317405692 64.234340190887451 8.6588028669357318 12.994947075843809 60.428420424461365 8.9324929714202863 360.00137957930565 8.3256378769874555 6.6618075370788565 6.6612887084484091 6.6615329384803763 852.85307416319847 7.659899413585662 113.56256446242332 8.6533308029174787 6.6564083099365225
leaf_count=24 891 22 59 20 22 193 26 39 183 27 1081 25 20 20 20 2583 23 341 26 20
internal_value=-0.000615506 0.0253538 0.0679811 0.0454295 0.0683123 -0.0726971 -0.0728522 -0.0733984 0.0683624 0.068655 -0.0728125 -0.0728027 -0.0729853 -0.0729277 -0.0727952 0.0683533 -0.0727977 -0.0727969 -0.072169 -0.072169
internal_weight=1878.36 1380.87 962.909 13.9361 948.973 497.495 417.96 28.315 941.701 28.4193 389.645 381.65 14.9874 15.3201 366.663 913.281 417.95 410.291 79.5441 15.3097
internal_count=5665 4171 2916 42 2874 1494 1255 85 2852 86 1170 1146 45 46 1101 2766 1255 1232 239 46
is_linear=0
shrinkage=0.05


Tree=6
num_leaves=17
num_cat=0
split_feature=49 49 49 49 49 16 49 16 0 26 18 49 27 39 16 0
split_gain=2801.14 669.761 8.11107 0.206122 0.00880551 0.00012448 4.82895e-05 4.06182e-05 4.62298e-05 2.62048e-05 7.43398e-06 5.78507e-06 3.31241e-05 1.94864e-06 2.72458e-07 7.10543e-15
threshold=0.32595631145317827 0.5566830143701883 0.56721850296063858 0.32359145210162082 0.1627349306414885 4.9250000000000203 0.15721744952849492 4.9453571428571363 2926.6675797427733 -285904.0250000009 28.352179067029784 0.16805173046478722 3035.6821253404341 0.80142147073833481 5.251785714285738 3233.2523352870226
decision_type=2 2 2 2 2 2 2 2 2 2 2 2 2 2 2 2
left_child=3 -2 -3 4 5 9 -7 8 -6 -1 -8 12 -9 -11 -13 -4
right_child=1 2 15 -5 7 6 10 11 -10 13 -12 14 -14 -15 -16 -17
leaf_value=-0.047480256161041109 0.14417005867820898 0.017560351034724964 -0.047265027280490486 -0.036753705992910633 -0.047032762009821427 -0.047417167387560119 -0.047648374817775167 -0.0470684357013424 -0.046827636116131728 -0.047379059532549873 -0.047558157090036371 -0.047048506550826236 -0.046930366715831173 -0.047412588953809648 -0.047054098903095705 -0.047265027280490486
leaf_weight=6.6397992074489585 316.13537645339966 5.3164647668600074 42.399951070547104 4.7882255017757407 7.7568580359220487 5.7337366938590995 4.4689824879169446 14.467251852154734 4.252659872174263 250.41140080988407 4.6689037084579468 22.646568223834038 6.2080974131822577 4.4096041619777671 568.95104514062405 9.8350401967763883
leaf_count=30 1232 23 194 22 36 26 20 67 20 1138 21 105 29 20 2637 45
internal_value=0.000435512 0.115609 -0.0412766 -0.0471002 -0.0471552 -0.0473902 -0.0475309 -0.0470512 -0.0469601 -0.0473822 -0.0476023 -0.047053 -0.047027 -0.0473796 -0.0470539 -0.047265
internal_weight=1279.09 373.687 57.5515 905.403 900.615 276.332 14.8716 624.282 12.0095 261.461 9.13789 612.273 20.6753 254.821 591.598 52.235
internal_count=5665 1494 262 4171 4149 1255 67 2894 56 1188 41 2838 96 1158 2742 239
is_linear=0
shrinkage=0.05


Tree=7
num_leaves=17
num_cat=0
split_feature=16 16 0 46 16 16 17 16 16 16 16 16 0 16 16 23
split_gain=1659 41.0852 65.6837 4.7817 2.75782 1.21307 0.444398 0.0435661 2.0463e-05 3.07587e-05 1.36347e-06 8.59112e-07 7.6153e-07 6.71152e-07 8.19524e-08 2.27374e-13
threshold=16.311071428571402 17.400714285714219 3049.2621796890971 0.85617346840968744 15.961428571428526 17.770714285714252 16.940476190476247 18.816785714285697 4.8925000000000098 9.8128571428571352 5.0707142857142715 10.339642857142818 2837.7974056340149 4.5625000000000169 4.7857142857142696 -109.28790938256716
decision_type=2 2 2 2 2 2 2 2 2 2 2 2 2 2 2 2
left_child=4 2 -2 -3 6 -5 8 -7 12 10 -10 -11 13 -1 -14 -9
right_child=1 3 -4 5 -6 7 -8 15 9 11 -12 -13 14 -15 -16 -17
leaf_value=-0.039211921289829109 0.36207084641929799 0.27428016667002897 0.0035652862477622998 0.32284654152323677 0.030907802757490804 0.36802328270968315 -0.016635394966168972 0.36194340782399759 -0.039188541904109434 -0.039195144096044743 -0.039166897806015233 -0.039211680959498951 -0.039212501638247049 -0.039163727606492671 -0.039205460104937549 0.36194340782399892
leaf_weight=1.3360695540904992 2.8493784219026557 1.7436402887105966 2.3161838054656982 2.0594553500413921 1.4168660342693318 3.4163310825824764 2.2010896503925315 3.0957624316215613 7.6378525458276263 9.2120920196175557 153.69380054622889 53.268527500331402 60.029923863708973 1.572820261120796 4.4375159963965407 18.326913595199578
leaf_count=24 25 18 37 20 23 28 38 25 139 167 2829 957 1078 29 80 148
internal_value=-0.000637217 0.331113 0.201321 0.354521 -0.0386815 0.359722 -0.0390175 0.36278 -0.0391867 -0.0391795 -0.0391679 -0.0392092 -0.0392109 -0.0391859 -0.039212 0.361943
internal_weight=328.614 33.8077 5.16556 28.6421 294.807 26.8985 293.39 24.839 291.189 223.812 161.332 62.4806 67.3763 2.90889 64.4674 21.4227
internal_count=5665 301 62 239 5364 221 5341 201 5303 4092 2968 1124 1211 53 1158 173
is_linear=0
shrinkage=0.05


Tree=8
num_leaves=27
num_cat=0
split_feature=16 16 5 13 16 1 16 3 16 5 0 20 35 29 16 39 16 2 16 0 9 16 5 3 16 0
split_gain=2649.94 46.5114 67.7925 35.3625 56.1702 11.5733 3.94542 2.76324 1.62845 9.44868 0.328102 0.261032 0.201843 0.120801 0.0212089 0.00138555 0.00109188 0.00143497 0.000117846 0.0004173 8.99117e-05 7.74434e-05 7.24382e-05 1.78213e-05 1.00381e-05 1.5375e-09
threshold=4.9453571428571363 5.251785714285738 3097.1727662306412 2949.1482500000006 4.6353571428571589 3189.3508349347508 4.8925000000000098 3044.4710543690712 5.4171428571428848 3235.2246558048441 2954.8911598067994 18.15424920937669 0.00098573648415689629 88.88000000000001 9.4850000000000332 0.80142147073833481 10.260714285714229 3020.4693292171837 9.1667857142857034 2830.9955192490029 2.8589295065155516 17.400714285714219 3111.8716152318252 2989.3314955620617 5.4732142857142536 3041.4172394679995
decision_type=2 2 2 2 2 2 2 2 2 2 2 2 2 2 2 2 2 2 2 2 2 2 2 2 2 2
left_child=3 2 7 4 11 -4 10 12 9 22 -5 -1 20 -6 18 23 17 -16 24 -20 -2 -18 25 -12 -10 -3
right_child=1 8 5 6 13 -7 -8 -9 14 -11 15 -13 -14 -15 16 -17 21 -19 19 -21 -22 -23 -24 -25 -26 -27
leaf_value=0.11014220396614101 -0.046463069024879025 -0.046455145808139149 0.04202192495139407 0.11068559275539469 -0.034984132086568101 0.12349600521435496 0.091081509063972332 -0.0017045269693094268 -0.046504650013207777 0.034969957989847436 0.12291946005210333 0.12396517546903263 -0.034616879366882285 -0.046677261101095727 -0.047008735589683354 0.12378637904922077 -0.047021707784689566 -0.046508087949888602 -0.047003159851875746 -0.046469282987414817 -0.046712128890400828 -0.04695391581075959 -0.046683189125357488 0.12299683292460939 -0.046455479727906202 -0.046454064082455837
leaf_weight=5.503617629408839 19.928643465042121 15.768436074256906 8.6966591030359286 5.4960829615592948 4.2238232940435392 8.7382188439369184 10.118900805711744 4.2847573906183234 10.613023892045019 4.1753072291612616 7.6321906149387351 9.000941187143324 4.1809939742088309 4.6298740804195404 30.118367105722427 5.6311395168304434 236.84385503828526 27.272916078567505 4.5160981863737133 19.313233718276024 4.429007649421691 51.24226251244545 4.2101150304079047 298.96327885985374 472.23343911767006 4.1492799967527381
leaf_count=20 96 76 36 20 20 31 38 19 51 18 27 32 20 22 140 20 1100 131 21 93 21 239 20 1058 2276 20
internal_value=0.000554282 -0.0436055 0.00317788 0.117582 0.0581425 0.0828561 0.121817 -0.039145 -0.046276 -0.034477 0.122796 0.11872 -0.0447662 -0.0410988 -0.0466679 0.123009 -0.04697 -0.0467708 -0.0464619 -0.0465705 -0.0465084 -0.0470096 -0.0464948 0.122995 -0.0464566 -0.0464549
internal_weight=1281.91 930.715 50.2583 351.2 23.3583 17.4349 327.842 32.8234 880.456 28.3031 317.723 14.5046 28.5386 8.8537 852.153 312.227 345.477 57.3913 506.676 23.8293 24.3577 288.086 24.1278 306.595 482.846 19.9177
internal_count=5665 4408 223 1257 94 67 1163 156 4185 134 1125 52 137 42 4051 1105 1610 271 2441 114 117 1339 116 1085 2327 96
is_linear=0
shrinkage=0.05


Tree=9
num_leaves=28
num_cat=0
split_feature=49 49 49 29 49 16 16 49 49 26 49 27 43 16 18 59 17 3 39 49 27 53 16 17 27 17 16
split_gain=1244.65 2050.23 2.65255 1.67962 0.11471 0.00401989 0.00284994 0.00154949 0.000980648 0.000849271 0.000729179 0.000835408 0.000288778 0.000149739 6.54089e-05 0.000164751 0.000124682 0.000117879 6.13266e-05 5.07561e-05 4.24827e-05 1.68637e-05 3.49385e-05 1.37754e-05 9.31622e-06 4.33377e-06 1.0175e-10
threshold=0.32595631145317827 0.1627349306414885 0.16429465578418634 55.489999999999974 0.32359145210162082 4.9250000000000203 17.400714285714219 0.15721744952849492 0.5566830143701883 -285904.0250000009 0.16702785299298098 3043.630564497555 0.088784492917641955 15.961428571428526 28.923824247134153 0.18197174065488453 19.398095238095213 3182.7626810158331 0.80142147073833481 0.16805173046478722 2891.0476991454125 4.5000000000000009 20.120000000000044 16.940476190476247 2991.3317124844748 16.940476190476247 10.339642857142818
decision_type=2 2 2 2 2 2 2 2 2 2 2 2 2 2 2 2 2 2 2 2 2 2 2 2 2 2 2
left_child=1 5 3 -3 10 9 8 -7 13 -1 11 -4 -9 23 17 21 -17 -8 20 -12 -11 25 -23 26 -15 -16 -2
right_child=6 2 4 -5 -6 7 14 12 -10 18 19 -13 -14 24 15 16 -18 -19 -20 -21 -22 22 -24 -25 -26 -27 -28
leaf_value=-0.069036737929040831 -0.068578458955660851 0.059617118514790228 0.06509689603825175 0.02475150311332746 0.058674095131746901 -0.068746618276774432 -0.068278315770771952 -0.069379359556708667 -0.069043734148547906 -0.068675478706645032 0.06514552097252789 0.065776717929094008 -0.06984060347620466 -0.068456857486425757 -0.068173135654452655 -0.068292049296923105 -0.06858907637661385 -0.068032270941366768 -0.068719196946231687 0.065008797568386276 -0.068563007137450269 -0.068363217592148681 -0.068221121442869556 -0.068523856941347647 -0.06838227633309768 -0.068220226619708502 -0.068578529458243109
leaf_weight=9.9237674474716169 61.125970333814621 7.2122974991798383 14.652647912502291 6.6293668150901794 7.1840015649795523 8.5943708717823046 11.88360306620598 6.9523634314537031 11.244974851608275 8.592228949069975 6.8395780622959128 6.5343391001224509 6.629155158996582 10.569216489791872 6.5997703075408962 7.5925363004207593 6.6080339848995209 8.2457231283187848 6.610972821712493 900.22153255343437 367.39952358603477 6.6037457883358028 12.541600704193113 11.892816066741942 6.9343391060829154 18.812346339225769 312.89895081520081
leaf_count=30 185 22 45 20 22 26 36 21 34 26 21 20 20 32 20 23 20 25 20 2766 1112 20 38 36 21 57 947
internal_value=-0.000491064 0.0241291 0.0646464 0.0429185 0.0649679 -0.0686171 -0.0685308 -0.069272 -0.0685832 -0.0685801 0.0650166 0.0653066 -0.0696045 -0.0685703 -0.0682553 -0.068282 -0.0684303 -0.0681775 -0.0685682 0.0650098 -0.0685656 -0.0682347 -0.0682701 -0.0685768 -0.0684273 -0.068208 -0.0685785
internal_weight=1857.53 1363.98 949.274 13.8417 935.432 414.702 493.554 22.1759 414.666 392.526 928.248 21.187 13.5815 403.421 78.8874 58.758 14.2006 20.1293 382.603 907.061 375.992 44.5575 19.1453 385.918 17.5036 25.4121 374.025
internal_count=5665 4171 2916 42 2874 1255 1494 67 1255 1188 2852 65 41 1221 239 178 43 61 1158 2787 1138 135 58 1168 53 77 1132
is_linear=0
shrinkage=0.05


Tree=10
num_leaves=25
num_cat=0
split_feature=49 49 49 49 49 16 17 16 17 49 27 26 16 1 49 16 49 49 46 39 16 16 16 0
split_gain=2394.5 526.404 7.61015 0.212539 0.024098 0.00269689 0.00130096 0.0001184 5.61101e-05 4.64747e-05 2.68957e-05 2.49397e-05 2.00182e-05 2.02788e-05 1.69178e-05 8.07823e-06 7.42053e-06 6.90193e-06 5.63199e-06 1.85272e-06 2.05819e-07 3.9995e-10 7.57154e-11 2.84217e-14
threshold=0.32595631145317827 0.5566830143701883 0.56721850296063858 0.32359145210162082 0.1627349306414885 15.961428571428526 17.287619047619028 4.9250000000000203 16.940476190476247 0.15721744952849492 2973.6504729816406 -285904.0250000009 4.9453571428571363 2927.3497044585533 0.16429465578418634 17.770714285714252 0.16021454494752105 0.16805173046478722 0.90169647982174428 0.80142147073833481 18.816785714285697 9.8128571428571352 10.339642857142818 2823.7363239292436
decision_type=2 2 2 2 2 2 2 2 2 2 2 2 2 2 2 2 2 2 2 2 2 2 2 2
left_child=3 5 -3 4 7 8 10 11 21 -9 -7 -1 13 -6 -14 -4 -11 -16 -17 -13 -20 23 -23 -2
right_child=1 2 15 -5 12 6 -8 9 -10 16 -12 19 14 -15 17 18 -18 -19 20 -21 -22 22 -24 -25
leaf_value=-0.046967953920743946 0.12416520820251686 0.015339372002731354 -0.046853325106684017 -0.035711128244111302 -0.046291331065625912 0.12442844992248998 0.12540892691967773 -0.046904721058263009 0.12428463626546507 -0.047044389257164247 0.12457778241420905 -0.046867685680607771 -0.04639235323790087 -0.046152228276283472 -0.046272848169870678 -0.04684945871774427 -0.047135910475111613 -0.046308734079448549 -0.046779786436071204 -0.046900895233490281 -0.046790371416242843 0.12416506559108319 0.12416498112003992 0.12416520820251689
leaf_weight=6.4368467628955832 13.491374015808107 5.4564924985170355 6.8164382576942435 4.6020937561988822 7.3845436871051771 6.1761126816272753 5.868958353996276 5.5568193644285193 10.113010525703428 4.5275349467992765 5.8913462162017822 242.65903586149216 5.9887172728776923 4.0608630925416946 13.725247278809546 4.2595166712999335 4.3357561230659485 563.15120108425617 5.3006786853075019 4.2737268507480612 34.372023582458496 29.512399435043335 266.17384874820709 8.9942493438720685
leaf_count=30 48 23 32 22 36 22 21 26 36 21 21 1138 29 20 67 20 20 2742 25 20 162 105 947 32
internal_value=0.000370856 0.101161 -0.0407698 -0.0464277 -0.0464849 0.124201 0.124798 -0.0468787 0.124169 -0.0470181 0.124501 -0.0468708 -0.0463075 -0.046242 -0.0463087 -0.0468027 -0.0470892 -0.0463079 -0.0467948 -0.0468683 -0.046789 0.124165 0.124165 0.124165
internal_weight=1269.13 402.426 56.2051 866.702 862.1 346.221 17.9364 267.79 328.285 14.4201 12.0675 253.37 594.311 11.4454 582.865 50.7487 8.86329 576.876 43.9322 246.933 39.6727 318.172 295.686 22.4856
internal_count=5665 1494 262 4171 4149 1232 64 1255 1168 67 43 1188 2894 56 2838 239 41 2809 207 1158 187 1132 1052 80
is_linear=0
shrinkage=0.05


Tree=11
num_leaves=18
num_cat=0
split_feature=16 16 4 16 3 30 1 16 1 46 16 16 16 17 16 13 2
split_gain=1161.4 17.1862 38.2179 2.63236 1.94744 5.75899 0.835577 0.292904 0.058408 0.0160902 0.000290912 6.00584e-05 0.000105072 1.59978e-05 7.93641e-06 2.85828e-06 5.33492e-07
threshold=16.311071428571402 17.400714285714219 3127.6853678417742 15.961428571428526 3182.7626810158331 0.6147348693114586 2741.5028857959865 18.221785714285637 3342.7394016093799 1.0971456469366772 19.261785714285683 10.110357142857117 5.0028571428571569 17.640952380952388 9.4850000000000332 2949.1482500000006 3353.8148655046321
decision_type=2 2 2 2 2 2 2 2 2 2 2 2 2 2 2 2 2
left_child=3 2 -2 6 7 -6 -1 -3 -7 -9 -11 12 15 16 -14 -8 -13
right_child=1 4 -4 -5 5 8 11 9 -10 10 -12 13 14 -15 -16 -17 -18
leaf_value=0.0030392553859731066 0.23460570142552989 0.26367862442857393 -0.039421578077170082 0.028090910263225428 0.16084664300074927 0.24345523969436381 -0.039112675562221727 0.2537779862046694 0.25218616272253319 0.24967329805317423 0.25013856512789018 -0.039151767067497345 -0.039070356760197343 -0.039344430352266341 -0.039112361083004914 -0.039150458564693458 -0.039115871514120881
leaf_weight=1.1808893755078305 4.4994074814021578 5.2038587629795101 1.7740777879953382 1.4727276861667622 2.4591682106256467 3.3046125471591949 5.424472101032733 3.358095824718478 4.5570981055498123 4.2545777261257198 15.972709476947783 53.714540455490351 141.18322712555528 1.0910790562629689 12.218657359480856 64.816247090697289 1.0554486885666836
leaf_count=21 32 32 30 23 21 20 103 20 27 25 94 997 2745 19 232 1204 20
internal_value=-0.000821395 0.233938 0.157114 -0.0385813 0.246261 0.227627 -0.0389312 0.252942 0.248516 0.250573 0.250041 -0.0391085 -0.0390969 -0.0391549 -0.0390737 -0.0391475 -0.0391511
internal_weight=327.541 45.3836 6.27349 282.157 39.1101 10.3209 280.685 28.7892 7.86171 23.5854 20.2273 279.504 223.643 55.8611 153.402 70.2407 54.77
internal_count=5665 301 62 5364 239 68 5341 171 47 139 119 5320 4284 1036 2977 1307 1017
is_linear=0
shrinkage=0.05


Tree=12
num_leaves=27
num_cat=0
split_feature=49 49 8 49 27 49 26 49 49 8 49 1 27 2 49 59 49 49 49 46 4 15 49 9 49 17
split_gain=2541.11 1.86948 2.8966 0.0732751 0.110118 0.039579 0.0129839 0.0105757 0.0057428 0.00885393 0.00149223 0.00120996 0.000856069 0.000267257 3.35076e-05 2.30189e-05 1.99684e-05 0.000193764 3.75123e-05 2.48158e-05 2.37846e-05 8.07325e-06 6.41655e-06 3.23541e-06 9.37991e-07 3.76576e-07
threshold=0.16346973500209752 0.16155642440512621 56.803473758625749 0.15807568450678092 2979.2802498603346 0.32595631145317827 -596678.42999999982 0.16429465578418634 0.15648853619092967 56.498200463213344 0.16805173046478722 3142.6007403384115 3044.2744937805869 3053.6767798435208 0.17516489401068133 0.61224995296096418 0.5566830143701883 0.56721850296063858 0.51801142746933304 0.92064358432724058 3159.1400563207112 0.01855196279209231 0.32359145210162082 1.8009370586189564 0.50820259218689834 16.940476190476247
decision_type=2 2 2 2 2 2 2 2 2 2 2 2 2 2 2 2 2 2 2 2 2 2 2 2 2 2
left_child=1 3 -3 6 -5 7 -1 -2 11 -10 12 -8 13 -9 15 -12 18 -18 24 -19 23 -21 -16 -20 25 -7
right_child=5 2 -4 4 -6 16 8 10 9 -11 14 -13 -14 -15 22 -17 17 19 20 21 -22 -23 -24 -25 -26 -27
leaf_value=0.11091219597470192 -0.047954252891763777 0.1135033097303792 0.061375164495538315 0.10870376959435984 0.11652489189886919 -0.046496122357624986 0.108687966169872 -0.04586467993564846 0.10863325379122402 0.11121257648158007 -0.045786530813900377 0.10900531866082452 -0.046847942306234479 -0.046333202979441643 -0.045756395036716385 -0.045885562475368374 -0.046824624606144352 -0.046584213395837237 -0.046423194674801049 -0.046541867284434192 -0.046308668879450281 -0.046473062752433805 -0.045817322441656053 -0.046483437716976959 -0.046474724918782545 -0.046483671614623433
leaf_weight=7.1601718664169303 5.6205606013536444 5.3896983265876752 5.271304190158844 10.545115649700167 7.8512790501117697 231.57250109314919 298.29685094952583 8.5453161299228686 7.5345346927642805 5.9580276906490326 28.853346049785614 33.397831082344055 4.2360030114650717 4.7276861667633048 509.30862706899643 7.3657704889774314 4.8868798762559882 6.6959270387887946 4.3472156673669797 4.7986223250627509 4.1068195402622214 38.222930833697319 4.358296498656272 4.5733866542577744 5.4016429632902137 6.2365418076515189
leaf_count=24 25 20 20 35 27 1113 990 43 25 20 146 111 20 23 2583 37 23 32 21 23 20 184 22 22 26 30
internal_value=0.000504645 0.108372 0.0877287 0.108965 0.112042 -0.0460425 0.108805 -0.045796 0.108761 0.109772 -0.0457747 0.10872 -0.0462291 -0.0460316 -0.0457602 -0.0458067 -0.0464968 -0.0465242 -0.0464909 -0.0464947 -0.0464082 -0.0464807 -0.0457569 -0.0464541 -0.0464953 -0.0464958
internal_weight=1265.26 381.405 10.661 370.744 18.3964 883.858 352.347 573.016 345.187 13.4926 567.395 331.695 17.509 13.273 549.886 36.2191 310.842 54.6044 256.238 49.7175 13.0274 43.0216 513.667 8.9206 243.211 237.809
internal_count=5665 1272 40 1232 62 4393 1170 2899 1146 45 2874 1101 86 66 2788 183 1494 262 1232 239 63 207 2605 43 1169 1143
is_linear=0
shrinkage=0.05


Tree=13
num_leaves=31
num_cat=0
split_feature=16 16 16 0 13 16 16 3 16 0 16 0 4 16 14 0 13 16 20 4 16 35 39 39 37 17 20 16 26 16
split_gain=926.231 1483.7 89.2098 97.8324 35.7892 42.8297 22.6402 47.1314 11.0449 33.2382 8.82341 33.2047 5.64332 5.22635 1.51899 0.901034 0.756685 0.650368 0.612354 0.361358 1.158 0.111073 0.111019 0.0549656 0.000244061 0.000228019 6.30768e-05 1.40689e-05 1.2173e-07 7.8515e-12
threshold=10.056071428571437 4.9453571428571363 9.4850000000000332 3021.7836506059334 2949.1482500000006 4.5625000000000169 5.0950000000000122 3047.1197070897001 10.339642857142818 3124.6855076635688 9.1667857142857034 2912.7794238005804 3305.8383750204612 4.9250000000000203 3343.4378879679284 2954.8911598067994 2937.3270000000007 9.9392857142857078 17.204637208765877 3319.9000945980683 11.979642857142837 0.00053084012185622431 0.81603041012546895 0.76242664972453855 -0.0013823595810095732 19.398095238095213 18.517361765225619 9.8128571428571352 -99214.61000000083 9.8128571428571352
decision_type=2 2 2 2 2 2 2 2 2 2 2 2 2 2 2 2 2 2 2 2 2 2 2 2 2 2 2 2 2 2
left_child=1 4 6 16 5 26 7 21 9 28 12 -12 -8 15 19 -6 29 27 -7 23 -21 -3 -17 25 -22 -10 -1 -5 -2 -4
right_child=8 2 3 17 13 18 10 -9 14 -11 11 -13 -14 -15 -16 22 -18 -19 -20 20 24 -23 -24 -25 -26 -27 -28 -29 -30 -31
leaf_value=-0.065215258180679511 -0.065047937324124713 0.062370496054683255 -0.065056841926412298 0.062123467965624395 -0.046665834591276795 0.062633396015829956 0.061629112543684174 -0.05930207718006323 -0.065051565147455942 0.062315339795145558 -0.055641990494854132 0.06069209257750835 0.035085458621007815 -0.019623865202391112 -0.044921265073925409 -0.06506809548362244 -0.046075002910061391 0.045366386726075243 0.042087279872544396 -0.041157003607600495 -0.065161993272939256 0.054694341471647784 -0.058483941489684436 -0.061488461211692547 -0.06481343751712719 -0.06519385133894838 -0.065012795628790518 0.062208507087652631 -0.065056383819756758 -0.065056895917377719
leaf_weight=6.8424009382724789 6.5106135904789033 17.895182698965076 15.300701051950456 20.416807532310489 6.8641805946826926 8.324507534503935 799.74234911799431 12.447561860084532 350.59348621964455 7.0289649963378897 7.7994914054870597 28.719978898763657 20.538361608982086 6.5692717730998984 10.064961731433867 358.74062004685402 6.4977421462535849 7.3633213341236106 6.4257574975490561 6.8124434649944332 10.748630911111837 6.3973338901996604 6.5186592638492575 11.066786259412764 9.4267871379852242 30.615730464458466 8.7876080274581891 6.3845564723014823 12.370749205350874 12.045237153768538
leaf_count=21 20 56 47 64 21 26 2506 38 1077 22 24 90 64 20 31 1102 20 23 20 21 33 20 20 34 29 94 27 20 38 37
internal_value=-0.000410705 0.0201131 0.0540442 -0.00115928 -0.059644 -0.0074292 0.0582458 0.0198111 -0.0622031 -0.0305008 0.0598939 0.0358465 0.0609645 -0.0638329 -0.0641163 -0.0646133 -0.0614125 0.0585278 0.0536828 -0.0645771 -0.0589808 0.060349 -0.0649506 -0.0649621 -0.0649991 -0.065063 -0.0651014 0.0621437 -0.0650535 -0.0650569
internal_weight=1825.86 1370.62 961.549 68.0084 409.073 30.3803 893.54 36.7401 455.239 25.9103 856.8 36.5195 820.281 378.693 429.329 372.123 33.8437 34.1647 14.7503 419.264 26.9879 24.2925 365.259 392.276 20.1754 381.209 15.63 26.8014 18.8814 27.3459
internal_count=5665 4266 3009 211 1257 94 2798 114 1399 80 2684 114 2570 1163 1319 1143 104 107 46 1288 83 76 1122 1205 62 1171 48 84 58 84
is_linear=0
shrinkage=0.05


Tree=14
num_leaves=28
num_cat=0
split_feature=49 49 49 49 49 49 4 9 49 2 49 14 17 49 29 9 46 49 1 1 29 15 44 49 59 12 17
split_gain=2078.07 428.699 7.19032 0.219323 0.0398254 0.00489429 0.0032926 0.000415374 0.000361475 0.000294746 0.000111888 4.37045e-05 4.06518e-05 3.15262e-05 8.57333e-05 6.11212e-05 2.34248e-05 2.26664e-05 2.20488e-05 2.48873e-05 1.51394e-05 7.70363e-06 6.50497e-06 1.51778e-06 9.67948e-07 4.16748e-07 1.41315e-08
threshold=0.32595631145317827 0.5566830143701883 0.56721850296063858 0.32359145210162082 0.1627349306414885 0.51801142746933304 3159.1400563207112 -1.0000000180025095e-35 0.15807568450678092 3050.5675232326998 0.50820259218689834 2727.0625872875667 16.940476190476247 0.16805173046478722 99.714999999999989 0.91887431386430773 0.92064358432724058 0.16528210551189751 2953.0190106455525 2910.6923510893221 -344.15499999999992 0.01855196279209231 0.38163609093192735 0.17516489401068133 0.61224995296096418 2964.6002324069837 5.0116666666666729
decision_type=2 2 2 2 2 2 2 2 2 2 2 2 2 2 2 2 2 2 2 2 2 2 2 2 2 2 2
left_child=3 5 -3 4 8 10 7 -7 18 20 11 -2 -13 14 17 -16 -4 -6 19 -1 -10 -18 -20 24 -15 -23 -25
right_child=1 2 16 -5 13 6 -8 -9 9 -11 -12 12 -14 23 15 -17 21 -19 22 -21 -22 25 -24 26 -26 -27 -28
leaf_value=-0.046363856301339657 0.1096728669256552 0.013594853753989928 -0.046436846771251455 -0.034688507937868616 -0.045428151554953576 0.1102352762000296 0.11136596310284637 0.10966733457827571 -0.046489172353188647 -0.04682805627514583 0.10975377407810108 0.10955645603135661 0.10966417532492939 -0.045618181258933542 -0.045549373368257755 -0.045794637583679132 -0.046395821026087053 -0.045552499276254182 -0.046348911007053205 -0.046508546599626277 -0.046365786943368424 -0.046339703398940071 -0.046387399309644861 -0.045622947357214699 -0.045597667124523608 -0.046325864352818644 -0.04562474960092016
leaf_weight=7.8345643728971464 8.7004854679107648 5.5685125887393943 6.6291794180870047 4.41943036019802 7.4875625073909777 6.2847194373607644 5.9555142223834983 6.6005263030529031 4.1567414253950128 7.4386880546808234 7.7976490557193747 325.38400945067406 9.0008451938629133 28.477673783898354 4.849064499139784 5.3347973227500916 4.7508835494518271 7.1780260503292084 216.87399795651436 4.7883071899414062 6.1857982277870187 6.5864052623510352 11.563452318310736 11.122221633791922 7.2050966471433631 31.255190998315811 492.96074369549751
leaf_count=38 29 23 32 22 39 21 20 22 20 35 26 1084 30 146 25 27 23 37 1053 23 30 32 56 57 37 152 2526
internal_value=0.00032318 0.0902661 -0.0402571 -0.0457973 -0.0458569 0.109609 0.110394 0.109944 -0.0463705 -0.046588 0.109566 0.109562 0.109559 -0.0456215 -0.0455664 -0.0456779 -0.0463494 -0.045489 -0.0463544 -0.0464187 -0.0464154 -0.0463358 -0.0463509 -0.045624 -0.045614 -0.0463283 -0.0456247
internal_weight=1252.39 424.514 54.7902 827.876 823.457 369.724 18.8408 12.8852 258.842 17.7812 350.883 343.085 334.385 564.615 24.8495 10.1839 49.2217 14.6656 241.06 12.6229 10.3425 42.5925 228.437 539.766 35.6828 37.8416 504.083
internal_count=5665 1494 262 4171 4149 1232 63 43 1255 85 1169 1143 1114 2894 128 52 239 76 1170 61 50 207 1109 2766 183 184 2583
is_linear=0
shrinkage=0.05


Tree=15
num_leaves=22
num_cat=0
split_feature=49 7 49 58 30 22 49 3 16 49 49 16 4 16 14 49 17 26 16 49 14
split_gain=971.245 0.544372 0.510194 1.60178 0.0298389 0.0612946 0.00389696 0.00178799 0.000414311 0.000152593 0.000240223 5.63761e-05 1.30605e-05 2.84174e-06 1.37537e-06 1.36372e-06 9.04941e-07 3.38706e-07 3.33877e-07 2.76594e-07 2.69852e-07
threshold=0.5566830143701883 12.844917373222993 0.57955429190182395 0.27309017171825128 0.60318435546464855 34.340961339934758 0.61992850709600456 3185.0962922789081 17.125357142857137 0.32595631145317827 0.1627349306414885 15.961428571428526 3129.1254993016505 4.9250000000000203 2727.0625872875667 0.15807568450678092 16.940476190476247 -285904.0250000009 4.9453571428571363 0.16429465578418634 2919.2063696029372
decision_type=2 2 2 2 2 2 2 2 2 2 2 2 2 2 2 2 2 2 2 2 2
left_child=8 -2 3 -3 5 -4 -6 -8 9 10 13 14 -13 17 -11 -15 -16 -1 20 -20 -12
right_child=1 2 4 -5 6 -7 7 -9 -10 11 18 12 -14 15 16 -17 -18 -19 19 -21 -22
leaf_value=-0.039111267624514577 0.1790497973347033 0.23388495859946837 0.19359775773396837 0.18563204709739781 0.19532199297318281 0.20177282864902227 0.19361502668111322 0.19453638573121124 -0.039924828573765107 -0.039135319248369604 -0.038969230012471379 -0.039440349940698304 -0.039219113845921187 -0.039100408051238877 -0.039087997831923321 -0.039162457840329658 -0.03912396754751981 -0.039087810346995516 -0.038997248907105007 -0.038975115937883928 -0.038936059338808997
leaf_weight=1.5792820341885079 4.660064533352851 3.4105854481458655 4.9977748543024045 3.4693870097398758 5.5846008956432334 4.2364590913057327 19.156846717000011 7.2615681290626517 1.3068335056304921 1.6542704850435246 1.7414197996258729 1.2789883762598031 1.3943678699433801 1.6221821159124368 57.320320334285498 1.9498481824994085 1.8036024793982495 60.17164096981287 1.426219381392001 137.45453669503331 0.94632861018180836
leaf_count=30 23 20 24 20 27 21 92 35 18 31 36 21 25 31 1103 36 34 1158 29 2831 20
internal_value=-0.000904262 0.195367 0.196947 0.209552 0.194844 0.197348 0.194122 0.193868 -0.0390367 -0.0390324 -0.0390116 -0.0391002 -0.039325 -0.0390909 -0.0390904 -0.0391343 -0.0390891 -0.0390884 -0.038975 -0.0389753 -0.0389576
internal_weight=324.427 52.7773 48.1172 6.87997 41.2372 9.23423 32.003 26.4184 271.65 270.343 206.891 63.4515 2.67336 65.323 60.7782 3.57203 59.1239 61.7509 141.569 138.881 2.68775
internal_count=5665 262 239 40 199 45 154 127 5403 5385 4171 1214 46 1255 1168 67 1137 1188 2916 2860 56
is_linear=0
shrinkage=0.05


Tree=16
num_leaves=28
num_cat=0
split_feature=49 49 8 16 49 49 1 1 49 16 49 39 27 20 2 4 49 16 49 46 16 3 49 30 16 10 12
split_gain=2216.78 1.37615 2.36533 0.154451 0.0553474 0.0502498 0.02426 0.0310191 0.0117623 0.00154354 0.00139958 0.00139069 0.000918177 0.000637157 0.000199898 0.000162968 0.000138825 0.000208885 0.000102013 3.8051e-05 3.64923e-05 1.78304e-05 1.61754e-05 1.22844e-05 5.83482e-06 4.34939e-06 1.20041e-06
threshold=0.16346973500209752 0.16155642440512621 56.803473758625749 4.9250000000000203 0.15721744952849492 0.32595631145317827 2953.0190106455525 2910.6923510893221 0.16429465578418634 4.8657142857142786 0.16805173046478722 0.80142147073833481 3044.2744937805869 19.431428976645368 3053.6767798435208 3305.8383750204612 0.5566830143701883 17.400714285714219 0.32359145210162082 0.88366401531277938 15.961428571428526 3323.3238931596056 0.32865628220876442 0.55230021755013126 9.4850000000000332 6.2319137522643597 3176.7433696622802
decision_type=2 2 2 2 2 2 2 2 2 2 2 2 2 2 2 2 2 2 2 2 2 2 2 2 2 2 2
left_child=1 3 -3 6 -5 8 7 13 -2 11 12 -8 14 -1 -10 18 20 -18 -12 -19 22 -17 -7 -22 -24 -21 -25
right_child=5 2 -4 4 -6 16 9 -9 10 -11 15 -13 -14 -15 -16 21 17 19 -20 25 23 -23 24 26 -26 -27 -28
leaf_value=0.098381625727146926 -0.047479540374355117 0.10281525092683159 0.056643366035938614 0.099903454638004541 0.10571982143041628 -0.045866586666670213 0.097736549829696415 0.10195325158817635 -0.045235899145444264 0.098398738859146739 -0.045122480291152386 0.098487116165902833 -0.046248793965744606 0.097686763065238449 -0.045651488580211494 -0.045265516469390282 -0.046301711350252912 -0.046153995827937423 -0.045381726476490643 -0.046002637317685752 -0.045801780934668634 -0.045393759913226278 -0.045905177530474968 -0.045924754973130283 -0.045964743304072582 -0.045964582078147284 -0.045887612942366242
leaf_weight=6.2900878489017504 5.4420932233333579 5.6685266196727735 5.4317589700222015 8.1253275573253649 8.2358209788799268 4.3734164983034125 334.52720749378204 8.0525359511375409 8.123497888445856 9.4342338442802411 505.2151238322258 6.2875081896781913 4.0550146698951712 6.9378072619438171 4.4942688792943946 9.2847374826669675 6.9697205275297156 4.0619413256645194 3.8233682662248603 31.941099733114243 3.9567289054393759 3.8277771174907675 4.1876440048217765 4.7933694422245008 225.36459757387638 9.8155753165483457 3.9830134958028793
leaf_count=20 25 20 20 26 27 22 1061 26 43 30 2699 20 20 22 23 49 34 20 20 159 20 20 21 24 1125 49 20
internal_value=0.000470237 0.0975801 0.0802217 0.0980768 0.102831 -0.0454529 0.0978675 0.0995066 -0.0451667 0.0977679 -0.0451433 0.0977504 -0.0455943 0.0980172 -0.0453839 -0.0451289 -0.0459731 -0.0460467 -0.0451244 -0.0460079 -0.0459574 -0.045303 -0.0459618 -0.0458749 -0.0459637 -0.0459937 -0.0459079
internal_weight=1242.7 398.991 11.1003 387.891 16.3611 843.713 371.529 21.2804 544.266 350.249 538.824 340.815 16.6728 13.2279 12.6178 522.151 299.447 52.7883 509.038 45.8186 246.659 13.1125 233.926 12.7331 229.552 41.7567 8.77638
internal_count=5665 1272 40 1232 53 4393 1179 68 2899 1111 2874 1081 86 42 66 2788 1494 262 2719 228 1232 69 1168 64 1146 208 44
is_linear=0
shrinkage=0.05


Tree=17
num_leaves=26
num_cat=0
split_feature=49 49 49 59 49 16 49 49 26 49 16 27 5 2 49 16 17 16 0 14 78 16 46 7 17
split_gain=993.331 1643.53 2.06873 0.851733 0.0778679 0.0480442 0.0114466 0.0043397 0.00427078 0.00420797 0.0042799 0.00306591 0.00285219 0.00157963 0.00123744 0.00109755 0.000379655 0.000333705 0.000332667 0.000234263 0.000237743 0.000206478 8.77444e-05 8.08104e-05 4.07463e-05
threshold=0.32595631145317827 0.1627349306414885 0.16429465578418634 0.46914845729683269 0.32359145210162082 4.9250000000000203 0.15807568450678092 0.16805173046478722 -285904.0250000009 0.5566830143701883 17.400714285714219 3044.2744937805869 3292.9039540980261 3319.2076118515129 0.32865628220876442 15.961428571428526 17.287619047619028 9.4850000000000332 3327.2024014080566 2972.2187363793387 0.024608867110558784 4.8657142857142786 0.97279385257111872 16.794666754989446 15.035238095238077
decision_type=2 2 2 2 2 2 2 2 2 2 2 2 2 2 2 2 2 2 2 2 2 2 2 2 2
left_child=1 5 3 -3 7 8 -7 11 -1 14 -11 -4 -9 22 -2 17 24 -16 -19 20 -10 -21 -12 -24 -17
right_child=9 2 4 -5 -6 6 -8 12 19 10 13 -13 -14 -15 15 16 -18 18 -20 21 -22 -23 23 -25 -26
leaf_value=-0.06313626208567806 -0.062743859862922913 0.051901256969283133 0.060008293790155987 0.026867400898575179 0.054375250670317267 -0.063269906947045595 -0.065573986889892938 0.059646468030129032 -0.062494267380355961 -0.063399839636960539 -0.062415111326033751 0.061267107381848346 0.060314214314546859 -0.062884494986442607 -0.062444462154507656 -0.061784186345094749 -0.061408164064039317 -0.062078878077620206 -0.062324346084814422 -0.062054724457767052 -0.06209181069519918 -0.062273085820730337 -0.06234883413075612 -0.062191202096262055 -0.061956768822913171
leaf_weight=9.6327643096446973 7.0489036738872519 7.1508021950721723 20.623951673507694 6.4737367033958435 6.9756778776645652 9.9692184925079363 11.736331492662428 844.71731540560722 6.3944987356662741 10.938597947359083 6.3952459394931784 6.3190287947654715 16.300331920385361 11.232401490211485 6.7154551148414603 6.9974579513072985 6.6560015380382529 344.4032798409462 14.378837704658507 343.05776712298393 8.610995948314665 11.178625077009199 9.9078055918216688 45.32505339384079 6.6897450089454651
leaf_count=30 22 22 66 20 22 31 36 2714 20 34 20 20 52 35 21 22 21 1080 45 1076 27 35 31 142 21
internal_value=-0.000358194 0.0221438 0.0593429 0.0400064 0.0596373 -0.062228 -0.0645157 0.0596787 -0.0620969 -0.062156 -0.0624776 0.0603035 0.0596591 -0.0623392 -0.0620874 -0.0620754 -0.0617179 -0.0620953 -0.0620887 -0.0620698 -0.0622633 -0.0620616 -0.0622398 -0.0622195 -0.0618685
internal_weight=1785.83 1309.14 908.561 13.6245 894.936 400.58 21.7055 887.961 378.875 476.689 83.7991 26.943 861.018 72.8605 392.89 385.841 20.3432 365.498 358.782 369.242 15.0055 354.236 61.6281 55.2329 13.6872
internal_count=5665 4171 2916 42 2874 1255 67 2852 1188 1494 262 86 2766 228 1232 1210 64 1146 1125 1158 47 1111 193 173 43
is_linear=0
shrinkage=0.05


Tree=18
num_leaves=24
num_cat=0
split_feature=49 49 49 49 49 16 49 17 16 0 17 49 4 16 16 49 29 16 49 40 46 23 10
split_gain=1825.35 357.571 6.89048 0.213507 0.0476029 0.00390538 0.00270948 0.00184598 0.000891228 0.000844915 0.000270847 0.00020952 0.000148059 5.76586e-05 0.000103408 4.04066e-05 9.36317e-05 3.46118e-05 2.03718e-05 1.74127e-05 1.51065e-05 6.88573e-06 3.86589e-06
threshold=0.32595631145317827 0.5566830143701883 0.56721850296063858 0.32359145210162082 0.1627349306414885 15.961428571428526 0.32865628220876442 17.287619047619028 9.4850000000000332 3327.2024014080566 15.035238095238077 0.16155642440512621 3305.8383750204612 5.0417857142857176 4.8925000000000098 0.16429465578418634 -6.3449999999999696 17.770714285714252 0.16528210551189751 0.27780341824231503 0.90169647982174428 17.249105804751199 6.2319137522643597
decision_type=2 2 2 2 2 2 2 2 2 2 2 2 2 2 2 2 2 2 2 2 2 2 2
left_child=3 5 -3 4 11 6 -2 10 -8 -10 -7 13 15 14 -1 16 -6 -4 -17 21 -19 -14 -22
right_child=1 2 17 -5 12 7 8 -9 9 -11 -12 -13 19 -15 -16 18 -18 20 -20 -21 22 -23 -24
leaf_value=-0.045831340443084172 0.09948565274638882 0.012598919109404864 -0.04599097234329852 -0.034117775583799213 -0.044935750909455924 0.099104318710193484 0.099060839361286762 0.099907512185335307 0.098458081905955092 0.098852729627758207 0.09865624079210393 -0.046172356770484278 -0.045071592184487967 -0.045652841129663432 -0.046009523649652044 -0.044891169871808877 -0.045289719628150801 -0.045958415028471172 -0.044999209622061408 -0.045235926930742236 -0.045865263797225865 -0.045167509821765532 -0.045827506328389472
leaf_weight=231.6328512430191 6.8883567452430716 5.6330270767211905 6.4189143180847159 4.3156889081001273 3.6814819723367691 6.8993900716304797 6.5867860317230216 6.5645604729652396 339.56442067027092 14.126540929079054 6.5975158512592316 4.6725129783153525 3.726586773991583 4.2981442213058463 8.4392241686582548 4.4007336795330039 3.7931509464979163 4.004081815481185 511.07140056788921 5.6678923666477203 28.233582094311714 3.7578805238008499 8.9214564114809018
leaf_count=1168 22 23 32 22 20 22 21 21 1080 45 21 23 20 22 42 24 20 20 2760 30 142 20 45
internal_value=0.000288909 0.0818401 -0.039692 -0.0452085 -0.0452695 0.0985405 0.0985034 0.0992198 0.0984846 0.0984738 0.0988853 -0.0458407 -0.0450041 -0.0458344 -0.0458376 -0.045 -0.0451154 -0.045883 -0.0449983 -0.0451698 -0.0458661 -0.0451198 -0.0458562
internal_weight=1229.9 440.439 53.2111 789.458 785.142 387.228 367.166 20.0615 360.278 353.691 13.4969 249.043 536.099 244.37 240.072 522.947 7.47463 47.578 515.472 13.1524 41.1591 7.48447 37.155
internal_count=5665 1494 262 4171 4149 1232 1168 64 1146 1125 43 1255 2894 1232 1210 2824 40 239 2784 70 207 40 187
is_linear=0
shrinkage=0.05


Tree=19
num_leaves=22
num_cat=0
split_feature=49 35 49 49 5 5 43 49 29 16 78 49 49 16 58 1 49 16 17 5 16
split_gain=783.394 0.448153 1.27743 0.936115 0.0164063 0.0102513 0.00372833 0.0027079 0.000431273 0.000373356 0.000209201 0.000188884 0.000304683 4.9686e-05 8.84777e-06 1.88063e-06 1.3117e-06 9.72782e-07 8.28376e-07 3.96913e-07 3.32363e-07
threshold=0.5566830143701883 1.3704724471819142e-05 0.57955429190182395 0.59846873301549675 3157.4205792662542 3159.0771247320413 -1.6806365016234317 0.64234844708856587 -742.8399999999998 17.125357142857137 0.49293939286454408 0.32595631145317827 0.1627349306414885 15.961428571428526 0.2879249586473509 2741.5028857959865 0.16155642440512621 10.180714285714254 16.940476190476247 3273.2327559816608 5.0417857142857176
decision_type=2 2 2 2 2 2 2 2 2 2 2 2 2 2 2 2 2 2 2 2 2
left_child=9 3 -3 -2 7 6 -5 -4 -8 11 -9 12 16 15 -15 -13 20 19 -17 -14 -1
right_child=1 2 4 5 -6 -7 8 10 -10 -11 -12 13 17 14 -16 18 -18 -19 -20 -21 -22
leaf_value=-0.039021027460829021 0.18195769531348935 0.13202405260985539 0.16043928682239267 0.16063535252914315 0.16263790722511717 0.16174222219249823 0.15927897995338158 0.15905284328092428 0.15870210335509646 -0.039818565493959977 0.15946257439918751 -0.039088521142444412 -0.03888712976152247 -0.039141259483798742 -0.039328342139136559 -0.03901960419133197 -0.039073670061584083 -0.038938445848962625 -0.039054709537805966 -0.038903240750893436 -0.038993030011776897
leaf_weight=60.434365287423134 6.1064639687538174 4.7400109320879009 6.4474526643753114 4.7719709873199525 5.6766802966594687 6.6485811322927466 6.7202112227678361 8.8890155255794507 6.2558604925870815 1.2560829780995835 4.7963260859251013 1.0396192371845234 128.92017147317529 1.1227315180003636 1.4458589553833006 55.592298999428749 1.1839008182287205 0.94767529889941116 1.7328117340803135 3.9397022426128379 1.0789485126733769
leaf_count=1210 29 23 27 20 24 28 28 37 26 18 20 20 2811 21 25 1114 23 20 34 85 22
internal_value=-0.000938308 0.160163 0.155882 0.16445 0.160264 0.160068 0.15944 0.159594 0.159001 -0.0389586 0.159196 -0.0389544 -0.0389306 -0.0390313 -0.0392466 -0.0390219 -0.0390215 -0.038888 -0.0390207 -0.0388876 -0.0390205
internal_weight=319.747 61.0526 30.5495 30.5031 25.8095 24.3966 17.748 20.1328 12.9761 258.694 13.6853 257.438 196.505 60.9333 2.56859 58.3647 62.6972 133.808 57.3251 132.86 61.5133
internal_count=5665 262 131 131 108 102 74 84 54 5403 57 5385 4171 1214 46 1168 1255 2916 1148 2896 1232
is_linear=0
shrinkage=0.05


Tree=20
num_leaves=22
num_cat=0
split_feature=49 49 16 49 49 26 49 16 14 78 49 39 49 49 50 16 49 16 46 17 49
split_gain=1945.55 6.08945 0.327592 0.128492 0.0582827 0.0205217 0.00657103 0.00325753 0.00192295 0.0016862 0.00160688 0.00104813 0.00079473 0.000362671 0.000314188 0.000310827 0.000167137 4.44749e-05 2.04913e-05 1.80158e-05 1.70217e-05
threshold=0.1627349306414885 0.16346973500209752 4.9250000000000203 0.15807568450678092 0.32595631145317827 -285904.0250000009 0.16528210551189751 4.8657142857142786 2972.2187363793387 0.024608867110558784 0.16429465578418634 0.81603041012546895 0.16702785299298098 0.5566830143701883 0.24617677607773802 17.400714285714219 0.32359145210162082 15.961428571428526 0.88489922754691475 16.580238095238098 0.32865628220876442
decision_type=2 2 2 2 2 2 2 2 2 2 2 2 2 2 2 2 2 2 2 2 2
left_child=2 -2 5 -4 6 -1 10 8 9 -7 -3 -10 14 17 -8 -15 -14 20 -17 -19 -6
right_child=1 4 3 -5 13 7 12 -9 11 -11 -12 -13 16 15 -16 18 -18 19 -20 -21 -22
leaf_value=0.091641336676130336 0.011508582058122205 -0.046647154513602164 0.091067673926456649 0.099014153057021326 -0.04535271287471495 0.090365221369709092 -0.044740058404638537 0.090027498805890255 0.08916545916751123 0.089283265194307793 -0.045285081100594829 0.089807040929495305 -0.044537700864945497 -0.045891994358661668 -0.045376678659132391 -0.045645459047925947 -0.044847986268439638 -0.045392184199354334 -0.045525421721588154 -0.045269186842476467 -0.045446376755669954
leaf_weight=9.0152254998683912 4.8146502971649161 4.1479613631963712 8.7166145145893115 12.216870933771132 4.9617555737495413 6.470680743455886 3.9739924520254126 12.311982363462446 345.06545415520668 8.1200170516967756 4.5301448553800583 6.4854388535022727 487.81862440705299 7.1586579978466025 3.7829860299825668 3.9089113324880591 4.3789547085762015 8.6178030669689161 39.302144303917885 4.5485313683748236 216.6089713126421
leaf_count=28 19 20 27 39 26 20 22 38 1062 25 24 20 2750 36 20 20 24 45 203 24 1126
internal_value=0.000845345 -0.0445528 0.0896129 0.0957053 -0.0448928 0.0892837 -0.0445721 0.0892275 0.0892006 0.0897631 -0.0459361 0.0891773 -0.0445484 -0.0454651 -0.0450505 -0.0455868 -0.0445405 -0.045439 -0.0455363 -0.0453497 -0.0454443
internal_weight=1206.96 798.554 408.402 20.9335 793.739 387.469 508.633 378.454 366.142 14.5907 8.67811 351.551 499.955 285.107 7.75698 50.3697 492.198 234.737 43.2111 13.1663 221.571
internal_count=5618 4359 1259 66 4340 1193 2860 1165 1127 45 44 1082 2816 1480 42 259 2774 1221 223 69 1152
is_linear=0
shrinkage=0.05


Tree=21
num_leaves=31
num_cat=0
split_feature=16 16 16 12 14 16 16 14 16 14 16 1 1 16 14 17 16 14 14 55 4 16 59 46 39 44 39 16 1 39
split_gain=724.528 1189.83 80.3327 91.6421 24.5 35.6519 20.606 37.9124 8.52967 23.6614 5.29507 4.00623 3.95642 1.80985 1.70193 4.95113 1.62358 0.999193 0.609544 0.517667 0.32621 1.02165 0.303782 0.260622 0.248807 0.0832812 0.0523216 0.00309602 0.000916747 0.000163993
threshold=10.056071428571437 4.9453571428571363 9.3082142857142909 3038.9778862862199 2946.3584707654868 4.6353571428571589 5.251785714285738 3118.5182727585334 10.339642857142818 3114.3157239008601 9.4850000000000332 3051.2029894512989 3189.3508349347508 4.8925000000000098 3300.0183994993135 5.9988095238095314 9.1667857142857034 3343.4378879679284 3025.0399731593175 0.27795316594243352 3319.9000945980683 11.979642857142837 0.50558737574345292 0.86021894019529033 0.35884100402975222 -0.49054300008199964 0.76242664972453855 17.125357142857137 2910.6923510893221 0.81603041012546895
decision_type=2 2 2 2 2 2 2 2 2 2 2 2 2 2 2 2 2 2 2 2 2 2 2 2 2 2 2 2 2 2
left_child=1 4 6 10 5 23 7 11 9 24 -4 -3 -9 29 16 -16 -8 20 -5 -7 26 -22 -12 28 -2 -20 27 -10 -1 -6
right_child=8 2 3 18 13 19 14 12 17 -11 22 -13 -14 -15 15 -17 -18 -19 25 -21 21 -23 -24 -25 -26 -27 -28 -29 -30 -31
leaf_value=-0.059562882602046466 -0.059573368668029751 0.05649978607701283 -0.012882326078255272 0.039849621498343001 -0.059492758098537352 0.059034997168718351 0.057403191280857246 -0.0095269711702983921 -0.059528882575087295 0.051866663417381623 -0.059577234860348688 0.022674466112118933 -0.060690404247968566 -0.038739419101937504 0.0055033762727034925 0.057799794598604987 0.039222912530883627 -0.041091467615289638 0.051169696815641874 0.039182757569613202 -0.036096053902604161 -0.059457530922701451 -0.047366523127103294 -0.04761468962516182 -0.047665127472324376 0.057564888793574277 -0.055813421590503877 -0.059899117208376186 -0.060380696819031521 -0.059751584498119382
leaf_weight=7.151637941598894 14.92512452602387 38.53016459941864 8.3206668496131879 6.3939520120620719 338.95707052946091 7.0700055062770826 718.76956197619438 6.3026961386203757 288.41670858860016 6.6820808053016654 27.989080816507339 11.32711425423622 9.4347947537899 10.829953819513319 6.2954130470752743 16.101211965084076 12.49390336871147 7.829545944929122 6.0615074634551993 6.1317198872566223 6.249768108129504 18.632230818271637 6.2266917526721945 6.2156644165515891 6.212079942226409 31.786353439092636 9.353974521160124 70.212544232606888 6.5791560113430023 6.2324968278408042
leaf_count=23 48 127 27 21 1091 23 2378 20 928 22 90 36 30 34 20 53 41 25 20 20 20 60 20 20 20 105 30 225 21 20
internal_value=-0.000561823 0.0180839 0.0494918 0.00374635 -0.0550379 -0.0139238 0.0543374 0.0274585 -0.0569192 -0.0301468 -0.0486557 0.048815 -0.0402 -0.058866 0.0566768 0.0430999 0.0570926 -0.0587779 0.0541284 0.0498144 -0.0591304 -0.0535897 -0.0573551 -0.0561094 -0.0560736 0.0565407 -0.0595051 -0.0596014 -0.0599547 -0.0594974
internal_weight=1723.71 1295.2 906.033 86.7783 389.168 33.1482 819.255 65.5948 428.514 27.8193 42.5364 49.8573 15.7375 356.02 753.66 22.3966 731.263 400.695 44.2418 13.2017 392.865 24.882 34.2158 19.9465 21.1372 37.8479 367.983 358.629 13.7308 345.19
internal_count=5618 4240 2988 283 1252 107 2705 213 1378 90 137 163 50 1145 2492 73 2419 1288 146 43 1263 80 110 64 68 125 1183 1153 44 1111
is_linear=0
shrinkage=0.05


Tree=22
num_leaves=22
num_cat=0
split_feature=49 49 49 49 49 16 49 16 4 49 49 4 16 16 16 49 40 46 49 25 9
split_gain=1600.45 304.589 4.9632 0.200659 0.0536361 0.00492784 0.00235774 0.00143144 0.00102489 0.000609334 0.00038622 0.000121597 7.38664e-05 0.000114588 4.3569e-05 4.21425e-05 2.26547e-05 1.38647e-05 1.33886e-05 7.65172e-06 2.27293e-06
threshold=0.32595631145317827 0.5566830143701883 0.56721850296063858 0.32359145210162082 0.1627349306414885 17.125357142857137 0.32865628220876442 15.961428571428526 3127.6853678417742 0.33641911177740097 0.16155642440512621 3305.8383750204612 5.0707142857142715 4.8925000000000098 17.400714285714219 0.16429465578418634 0.27780341824231503 0.89986859256534468 0.16528210551189751 -36.415054607960279 5.5036327730699677
decision_type=2 2 2 2 2 2 2 2 2 2 2 2 2 2 2 2 2 2 2 2 2
left_child=3 5 -3 4 10 6 -2 9 -9 -8 12 15 13 -1 -4 -6 19 -16 -17 -13 -19
right_child=1 2 14 -5 11 -7 7 8 -10 -11 -12 16 -14 -15 17 18 -18 20 -20 -21 -22
leaf_value=-0.045322747449052674 0.090632453500619992 0.0050006383000669279 -0.045587564265940725 -0.034156414080318789 -0.044548183390955523 0.091197057663408881 0.090033452380618439 0.090735436278659987 0.089917615570872744 0.089750184001375161 -0.045764944200569938 -0.044484621253330053 -0.045110799100826438 -0.045509754120868141 -0.045502706542799531 -0.044331403370487861 -0.044671046728988709 -0.045410802938462273 -0.044421377506716403 -0.04458404722086922 -0.045383288618939546
leaf_weight=222.40194760262966 8.4076548814773542 5.4651981443166724 3.8860327452421179 4.5223632007837287 6.560486137866973 6.4557937383651725 20.089710086584091 6.4658464193344107 9.400582551956175 345.08689376711845 5.120184749364852 4.2347043007612228 3.9215931445360175 8.5047835409641248 3.86459757387638 4.1707300096750251 4.4893135130405426 27.428527370095253 477.90480627119541 3.5634136199951154 10.333950147032736
leaf_count=1168 26 22 20 24 37 20 62 20 29 1064 26 24 21 44 20 24 25 143 2725 20 54
internal_value=0.00019803 0.0750145 -0.0400212 -0.0446566 -0.0447207 0.089827 0.0898042 0.089786 0.0902509 0.0897658 -0.0453353 -0.0444262 -0.045326 -0.0453296 -0.0454275 -0.0444223 -0.0445816 -0.0454125 -0.0444206 -0.0445301 -0.0454033
internal_weight=1192.28 446.885 50.9783 745.394 740.872 395.906 389.451 381.043 15.8664 365.177 239.949 500.923 234.828 230.907 45.5131 488.636 12.2874 41.6271 482.076 7.79812 37.7625
internal_count=5618 1480 259 4138 4114 1221 1201 1175 49 1126 1259 2855 1233 1212 237 2786 69 217 2749 44 197
is_linear=0
shrinkage=0.05


Tree=23
num_leaves=22
num_cat=0
split_feature=49 18 49 16 5 30 2 21 16 49 36 49 49 17 16 49 49 4 17 0 16
split_gain=651.408 0.333803 0.829191 0.581632 0.0283852 0.0175962 0.000806864 0.000743377 0.000484974 0.000356796 0.00031201 0.000190513 0.000363862 0.000114991 2.06521e-05 2.54004e-06 1.11338e-06 8.18538e-07 7.7143e-07 6.39621e-07 4.55884e-07
threshold=0.5566830143701883 47.181685932285838 0.57955429190182395 18.221785714285637 3157.4205792662542 0.60638548696072958 2932.5438632747369 18.037781509423258 16.311071428571402 0.69683304053545425 0.0053998032851059205 0.32595631145317827 0.1627349306414885 16.580238095238098 15.961428571428526 0.16155642440512621 0.32359145210162082 3305.8383750204612 16.940476190476247 2747.4266865536097 5.0707142857142715
decision_type=2 2 2 2 2 2 2 2 2 2 2 2 2 2 2 2 2 2 2 2 2
left_child=8 2 -2 -3 7 -4 -7 -5 11 -8 -9 12 15 -10 18 20 17 -14 19 -13 -1
right_child=1 3 5 4 -6 6 9 10 13 -11 -12 14 16 -15 -16 -17 -18 -19 -20 -21 -22
leaf_value=-0.038951662461266461 0.15640289325998169 0.11992721822560724 0.13889402018784827 0.13633625992609602 0.13993425542265567 0.1364043244798043 0.13535952642038032 0.13544487123745735 -0.039231375040859828 0.13586696202716134 0.13587949142666739 -0.038983882345747477 -0.038801861854047527 -0.039865403538186212 -0.039162648415119607 -0.039021834163101093 -0.038853619313746972 -0.038828140454360116 -0.038985880028389229 -0.038950371242362627 -0.038917294064739344
leaf_weight=57.979238070547581 6.5705949813127509 6.4484687298536292 6.3063032329082516 5.5831750035286012 5.22727346420288 5.3156316876411465 5.3409973084926596 8.0084151625633258 1.5178954638540738 9.8580918014049512 8.525434732437132 1.4640048518776883 120.44694816693664 1.3522016182541845 1.1924740895628918 1.2967436648905266 1.07477556914091 3.0380346402525893 1.6618685349822033 52.005387902259827 0.98121581971645255
leaf_count=1212 29 26 24 21 20 20 20 30 28 37 32 30 2786 19 22 26 24 69 34 1088 21
internal_value=-0.0009254 0.136938 0.140484 0.133435 0.136621 0.136584 0.135874 0.135837 -0.038884 0.135689 0.135669 -0.0388763 -0.0388517 -0.0395301 -0.0389568 -0.0389526 -0.0388029 -0.0388025 -0.0389523 -0.0389513 -0.0389511
internal_weight=311.195 67.1844 33.3916 33.7928 27.3443 26.821 20.5147 22.117 244.011 15.1991 16.5338 241.141 184.817 2.8701 56.3237 60.2572 124.56 123.485 55.1313 53.4694 58.9605
internal_count=5618 259 130 129 103 101 77 83 5359 57 62 5312 4138 47 1174 1259 2879 2855 1152 1118 1233
is_linear=0
shrinkage=0.05


Tree=24
num_leaves=22
num_cat=0
split_feature=49 49 16 49 49 44 26 49 16 14 49 38 49 39 27 49 16 16 16 16 46
split_gain=1726.91 5.85696 0.321881 0.148448 0.059708 0.0372781 0.0196536 0.00708861 0.00437948 0.00212887 0.00173587 0.00118243 0.000877962 0.000697433 0.000629982 0.000620396 0.000499809 0.000342549 9.09485e-05 3.40441e-05 1.89262e-05
threshold=0.1627349306414885 0.16346973500209752 4.9250000000000203 0.16021454494752105 0.32595631145317827 0.083665163952419672 -285904.0250000009 0.16528210551189751 4.8657142857142786 2972.2187363793387 0.16429465578418634 0.46809264071279266 0.16702785299298098 0.81603041012546895 2972.5186186239357 0.5566830143701883 10.180714285714254 17.400714285714219 9.4850000000000332 15.961428571428526 0.88489922754691475
decision_type=2 2 2 2 2 2 2 2 2 2 2 2 2 2 2 2 2 2 2 2 2
left_child=2 -2 6 5 7 -4 -1 10 9 11 -3 -8 14 -11 -9 18 -14 -17 -6 -20 -19
right_child=1 4 3 -5 15 -7 8 12 -10 13 -12 -13 16 -15 -16 17 -18 20 19 -21 -22
leaf_value=0.084681047387469677 0.010761438581216733 -0.046232995960118504 0.083516876128241407 0.095100179319893161 -0.044693947130910842 0.088491353207842724 0.083396822389797218 -0.044097881421469864 0.083261156247090934 0.082277207574439959 -0.044790548177583642 0.082499106324504953 -0.044002480238372041 0.08279570649045262 -0.045020252911324075 -0.045454563052093229 -0.044597787004055804 -0.04518140096983058 -0.044940527262472649 -0.044855924528948321 -0.045063807126854594
leaf_weight=9.1953903734683973 4.8472927361726752 4.0212184190750104 7.5841972231864947 6.35327324271202 3.9603684693574897 7.481165885925293 6.5953032970428458 3.7292190194129935 12.539068788290022 351.23065400123596 4.3333220630884171 8.264393597841261 462.39940541982651 6.6075645089149466 3.6760184466838837 6.9127621054649344 3.5529281497001639 3.7621526122093192 208.14346155524254 12.611299917101858 37.803728476166725
leaf_count=28 19 20 23 20 22 23 20 22 38 1062 24 25 2754 20 20 36 20 20 1130 69 203
internal_value=0.000809793 -0.0440242 0.0827207 0.0886903 -0.044376 0.0859871 0.0823966 -0.0440411 0.0823421 0.0823111 -0.0454848 0.0828975 -0.0440156 0.0822868 -0.0445558 -0.0449664 -0.044007 -0.0451287 -0.0449314 -0.0449357 -0.0450745
internal_weight=1175.6 759.753 415.851 21.4186 754.906 15.0654 394.432 481.712 385.237 372.698 8.35454 14.8597 473.358 357.838 7.40524 273.194 465.952 48.4786 224.715 220.755 41.5659
internal_count=5618 4359 1259 66 4340 46 1193 2860 1165 1127 44 45 2816 1082 42 1480 2774 259 1221 1199 223
is_linear=0
shrinkage=0.05


Tree=25
num_leaves=31
num_cat=0
split_feature=16 16 16 12 16 12 0 16 16 0 16 16 2 14 17 16 26 16 16 14 28 13 39 52 16 16 20 38 14 14
split_gain=652.89 1071.8 71.6728 82.3672 23.7088 36.7181 20.4503 31.5365 7.7284 23.0671 4.86261 4.75685 4.34067 1.6246 4.60376 1.56324 1.32821 0.592599 0.317257 1.06313 0.301067 0.251819 0.0970716 0.0815568 0.00691331 0.00615724 0.00382072 0.000624746 0.000203127 0.000120103
threshold=10.056071428571437 4.9250000000000203 9.3082142857142909 3038.9778862862199 5.251785714285738 3130.5605700683291 2953.1351585171278 4.6353571428571589 10.339642857142818 3123.569002463028 9.4850000000000332 5.1242857142857003 3037.7215849100407 3300.0183994993135 5.9988095238095314 9.1667857142857034 225110.33999999988 9.8824999999999878 10.605714285714273 3107.7585543172258 0.36836958896514871 2805.5285000000008 0.81603041012546895 2.5000000000000004 4.8657142857142786 16.806785714285692 18.15424920937669 0.44705999644853006 3025.4497015812153 2981.7798007142796
decision_type=2 2 2 2 2 2 2 2 2 2 2 2 2 2 2 2 2 2 2 2 2 2 2 2 2 2 2 2 2 2
left_child=1 6 4 10 5 12 7 21 9 -2 -4 -7 -3 15 -15 -6 18 28 19 -10 -12 -1 24 -20 29 -25 -26 -23 -5 -8
right_child=8 2 3 17 13 11 22 -9 16 -11 20 -13 -14 14 -16 -17 -18 -19 23 -21 -22 27 -24 25 26 -27 -28 -29 -30 -31
leaf_value=-0.045437813446701836 -0.057356940525581018 0.055061271657867797 -0.012170421424107677 0.055861707281536221 0.055479309455204844 -0.055881850969381031 -0.057464359758972773 0.050148706700377833 -0.057298786431347927 0.046129559614689397 -0.04506866244005641 -0.005393312216221845 0.020872535014530513 0.0049790196155860729 0.055835402740401011 0.037432001751706002 -0.033421227907995225 0.042009370087365772 -0.051981984755242218 -0.033304421759026835 -0.057387763035536749 -0.058101079918357605 -0.051237706470626622 -0.0573345230571526 -0.057600951735826134 -0.057826304238387007 -0.05937161739217417 -0.057414161196790707 0.055536735844293916 -0.057273462065107021
leaf_weight=6.0618580579757753 19.616363346576694 37.779175609350204 8.2104484736919385 5.883699804544448 695.2816389799118 11.131621718406679 8.4612958133220655 11.662644416093825 19.297345042228702 7.422134965658187 6.0668748617172232 8.0310274660587293 12.308632701635359 6.2285357415676144 15.584359884262083 12.209569990634916 6.0869547426700583 10.689850240945814 6.9502505064010611 6.0680828392505637 27.173733204603195 6.0917157828807813 6.6851157248020163 267.2623872756958 6.0564857423305494 83.543157815933228 6.130261242389679 7.2487938404083252 26.315310716629028 314.0606597661972
leaf_count=20 65 128 27 20 2378 36 28 39 64 25 20 26 40 20 53 41 20 36 23 20 90 20 22 886 20 275 20 24 90 1042
internal_value=-0.000531924 0.0174616 0.047469 0.0036332 0.0520987 0.0241401 -0.0536693 -0.0148299 -0.0547984 -0.0289496 -0.0466283 -0.0347222 0.0466597 0.0547535 0.0413137 0.0551679 -0.0565941 0.0522097 -0.0569623 -0.0515587 -0.0551394 -0.0538881 -0.0572035 -0.0573454 -0.0573226 -0.0574516 -0.0584916 -0.0577278 0.0555961 -0.0572785
internal_weight=1671.6 1255.35 882.894 84.3399 798.555 69.2505 372.459 31.065 416.247 27.0385 41.4511 19.1626 50.0878 729.304 21.8129 707.491 389.208 42.8889 383.121 25.3654 33.2406 19.4024 341.394 357.756 334.709 350.806 12.1867 13.3405 32.199 322.522
internal_count=5618 4240 3005 283 2722 230 1235 103 1378 90 137 62 168 2492 73 2419 1288 146 1268 84 110 64 1132 1184 1110 1161 40 44 110 1070
is_linear=0
shrinkage=0.05


Tree=26
num_leaves=19
num_cat=0
split_feature=49 49 49 49 49 16 49 16 16 49 16 49 16 5 16 16 46 14
split_gain=1428.3 262.881 4.80354 0.20047 0.0532955 0.0152455 0.00466971 0.00359701 0.000943168 0.000262125 0.000238992 0.000138753 8.14004e-05 6.25135e-05 4.93718e-05 2.26253e-05 1.25787e-05 6.53096e-06
threshold=0.32595631145317827 0.5566830143701883 0.56721850296063858 0.32359145210162082 0.1627349306414885 9.4850000000000332 0.32865628220876442 17.125357142857137 15.961428571428526 0.16429465578418634 10.110357142857117 0.16155642440512621 5.0707142857142715 3273.2327559816608 17.400714285714219 4.8925000000000098 0.89986859256534468 3137.044722400758
decision_type=2 2 2 2 2 2 2 2 2 2 2 2 2 2 2 2 2 2
left_child=3 5 -3 4 11 -2 -7 8 -8 -6 13 12 15 -11 -4 -1 -16 -18
right_child=1 2 14 -5 9 6 7 -9 -10 10 -12 -13 -14 -15 16 -17 17 -19
leaf_value=-0.044829609795164142 0.08516558436397452 0.0046445256076719536 -0.045150102692213395 -0.033486356007134746 -0.044217488252220993 0.084051488595820997 0.082787300178165685 0.083982065648139176 0.083177466627109967 -0.043895827881122333 -0.044316365030325565 -0.045099100055523186 -0.044597609282299118 -0.044002737336772894 -0.045047863716217273 -0.044914825201551767 -0.044960625678770565 -0.044903042511158432
leaf_weight=212.99125628173351 7.2275431454181662 5.4885229915380469 3.7459745407104483 4.3858817964792243 6.6847894489765158 7.9038169085979453 365.40185481309891 6.5896105468273154 16.174859017133713 450.08976744115353 3.4567673355340949 4.8505974113941184 3.7436174303293219 14.101971626281737 3.7187761217355719 8.0849623233079893 30.448036327958107 5.8740504831075659
leaf_count=1168 22 22 20 24 39 24 1106 20 49 2712 20 26 21 84 20 44 165 32
internal_value=0.000185198 0.0695698 -0.0394495 -0.0441429 -0.0442093 0.0828899 0.0828483 0.0828238 0.0828038 -0.0439066 -0.0439022 -0.0448345 -0.0448288 -0.0438991 -0.0449765 -0.0448327 -0.0449603 -0.0449513
internal_weight=1160.96 452.573 49.2754 708.39 704.004 403.298 396.07 388.166 381.577 474.333 467.649 229.67 224.82 464.192 43.7868 221.076 40.0409 36.3221
internal_count=5618 1480 259 4138 4114 1221 1199 1175 1155 2855 2816 1259 1233 2796 237 1212 217 197
is_linear=0
shrinkage=0.05


Tree=27
num_leaves=21
num_cat=0
split_feature=49 40 40 49 17 16 16 26 46 16 49 49 17 16 16 49 49 17 16 16
split_gain=556.059 0.28864 0.257588 0.451788 0.16761 0.686615 0.220164 0.0394498 0.000610974 0.00042784 0.000198039 0.000381341 9.84233e-05 1.79213e-05 3.3352e-06 1.82829e-06 1.00009e-06 7.11718e-07 5.36663e-07 3.97326e-07
threshold=0.5566830143701883 0.58962523011980239 0.38620526660338111 0.61992850709600456 17.287619047619028 18.816785714285697 18.221785714285637 154236.78499999913 1.6456139384615851 16.311071428571402 0.32595631145317827 0.1627349306414885 16.580238095238098 15.961428571428526 10.180714285714254 0.16429465578418634 0.16155642440512621 16.940476190476247 5.0707142857142715 9.4850000000000332
decision_type=2 2 2 2 2 2 2 2 2 2 2 2 2 2 2 2 2 2 2 2
left_child=9 2 4 -4 6 -6 -2 -7 -8 10 11 16 -11 17 15 -13 18 19 -1 -12
right_child=1 -3 3 -5 5 7 8 -9 -10 12 13 14 -14 -15 -16 -17 -18 -19 -20 -21
leaf_value=-0.038880880820017928 0.13017583623496223 0.10868001894124479 0.13772370627358863 0.11940166406496339 0.10075027849971026 0.11907324662646418 0.11843174179499094 0.12373804859829306 0.11914240279140571 -0.039146997513330201 -0.038848680896601123 -0.038775599614840409 -0.039747092916966542 -0.039081654731984154 -0.038821449507655606 -0.038722601862301274 -0.03892597194280796 -0.038914165556405089 -0.038842653052021399 -0.038880788301671576
leaf_weight=55.354194082319736 6.5354380607605007 5.5357873290777198 5.5198786109685889 8.6167400479316694 5.5288983583450309 23.300515323877338 6.0585066974163038 5.6267853379249564 6.0390821993350983 1.4499730467796319 0.98246942833065887 1.6506740450859059 1.292213689535856 1.1390904821455468 0.87294339761137862 114.9593790024519 1.2217827588319767 1.587494522333144 0.93357067182660003 50.051285680383444
leaf_count=1212 24 20 21 30 21 81 21 20 21 28 22 39 19 22 20 2820 26 34 21 1096
internal_value=-0.000913177 0.119654 0.120558 0.126556 0.118961 0.116895 0.122781 0.119981 0.118787 -0.038809 -0.0388015 -0.0387757 -0.0394298 -0.0388854 -0.0387241 -0.0387234 -0.0388812 -0.0388812 -0.0388802 -0.0388802
internal_weight=304.257 72.7616 67.2258 14.1366 53.0892 34.4562 18.633 28.9273 12.0976 231.495 228.753 174.993 2.74219 53.7603 117.483 116.61 57.5095 52.6212 56.2878 51.0338
internal_count=5618 259 239 51 188 122 66 101 42 5359 5312 4138 47 1174 2879 2859 1259 1152 1233 1118
is_linear=0
shrinkage=0.05


Tree=28
num_leaves=22
num_cat=0
split_feature=49 49 16 49 49 0 0 49 16 49 27 49 49 39 27 16 16 16 49 15 46
split_gain=1542.56 5.67014 0.317188 0.133189 0.0583848 0.0141781 0.0162955 0.00722461 0.00297263 0.00160627 0.00123121 0.000956862 0.000943786 0.00088524 0.000636753 0.000510271 0.000365152 0.000293708 0.000153555 8.04531e-05 2.27363e-05
threshold=0.1627349306414885 0.16346973500209752 4.9250000000000203 0.15807568450678092 0.32359145210162082 2954.8911598067994 2935.5401799626266 0.16528210551189751 4.8657142857142786 0.16429465578418634 2907.4375648262721 0.5566830143701883 0.16702785299298098 0.81603041012546895 2972.5186186239357 10.110357142857117 17.400714285714219 9.4850000000000332 0.32865628220876442 0.0090401089954670038 0.88489922754691475
decision_type=2 2 2 2 2 2 2 2 2 2 2 2 2 2 2 2 2 2 2 2 2
left_child=2 -2 5 -4 7 6 10 9 13 -3 -1 17 14 19 -9 -14 -13 -6 -19 -7 -18
right_child=1 4 3 -5 11 8 -8 12 -10 -11 -12 16 15 -15 -16 -17 20 18 -20 -21 -22
leaf_value=0.077600668267978012 0.010270802886603191 -0.045765238206309539 0.078290970871089882 0.086241783242963443 -0.044062084703266169 0.076636995425061513 0.08005286066746975 -0.043619834791053462 0.077430700555283505 -0.044349897570321185 0.076715996231125058 -0.045030654038458136 -0.043506651391879571 0.077222060353477825 -0.044569608780892583 -0.044123890279968277 -0.044750303845262879 -0.044214302359148729 -0.044455044756204307 0.07681239713025996 -0.044618890079994672
leaf_weight=6.988107621669772 4.8645851910114279 3.8812014609575254 8.9780691564083117 12.743775695562361 5.064703404903411 348.84071716666222 6.6197417676448813 3.5330471694469443 12.650809854269026 4.1461087167263031 8.9953019618988019 6.6631304025650016 433.10760223865509 6.6611467897891989 3.5257491618394852 3.3744639456272116 3.6196507364511481 6.8429012745618811 206.75327871739864 6.662409007549285 36.292635530233383
leaf_count=21 19 20 27 39 30 1047 20 22 38 24 27 36 2730 20 20 20 20 40 1175 20 203
internal_value=0.000781023 -0.0435283 0.0770722 0.0829556 -0.0438934 0.0767506 0.0779668 -0.0435476 0.0766773 -0.0450342 0.0771028 -0.0444822 -0.0435207 0.076651 -0.0440942 -0.0435114 -0.044688 -0.0444384 -0.0444473 0.0766403 -0.0446308
internal_weight=1140.81 721.669 419.14 21.7218 716.804 397.418 22.6032 451.568 374.815 8.02731 15.9834 265.236 443.541 362.164 7.0588 436.482 46.5754 218.661 213.596 355.503 39.9123
internal_count=5618 4359 1259 66 4340 1193 68 2836 1125 44 48 1504 2792 1087 42 2750 259 1245 1215 1067 223
is_linear=0
shrinkage=0.05


Tree=29
num_leaves=24
num_cat=0
split_feature=49 49 49 16 18 19 49 16 16 49 49 49 16 26 3 49 26 0 16 0 49 46 45
split_gain=717.734 1209.48 1.15873 0.0814399 0.0569626 0.115239 0.0255404 0.0230355 0.0168461 0.0132264 0.0128616 0.00554784 0.00545957 0.0045816 0.00117426 0.000789144 0.000584583 0.000463 0.000487368 0.000427625 0.000211041 0.000195627 5.82469e-06
threshold=0.32595631145317827 0.1627349306414885 0.16429465578418634 4.9250000000000203 15.045439975801935 20.505697423190266 0.15807568450678092 10.180714285714254 9.4850000000000332 0.5566830143701883 0.32359145210162082 0.32865628220876442 17.400714285714219 -285904.0250000009 3241.3634766971941 0.33641911177740097 222011.4899999995 2910.3753499693021 4.8657142857142786 3116.0320726931272 0.1474920993561373 0.96225303967258669 0.43587140579964362
decision_type=2 2 2 2 2 2 2 2 2 2 2 2 2 2 2 2 2 2 2 2 2 2 2
left_child=1 3 -3 13 5 22 -5 10 -2 11 -6 -10 -11 -1 21 19 -17 20 -19 -13 -15 -14 -4
right_child=8 2 4 6 7 -7 -8 -9 9 12 -12 15 14 17 -16 16 -18 18 -20 -21 -22 -23 -24
leaf_value=-0.056558897377700312 -0.058078526544908284 0.038404838301341997 0.053832963889600127 -0.056475424156413649 0.053905829813633691 0.045191358222858108 -0.060111666589619028 0.057045679262318405 -0.056800575976882123 -0.057188608649328398 0.056308484575145493 -0.05553197124995346 -0.056170854037624222 -0.055468814572269411 -0.056553976967980139 -0.05536647261361044 -0.05583624695300983 -0.055346554726495391 -0.055683072432111236 -0.05607911727933327 -0.055888046060870861 -0.055867453072764688 0.053903166031737587
leaf_weight=8.2898880839347822 6.6983827948570243 12.275237053632734 6.1995448172092456 8.0157127976417559 773.01827448606491 5.6563397347927085 12.146929681301115 5.9515474736690512 7.1400123834609976 10.800643444061278 5.6103782653808585 9.0629513859748823 5.916538178920745 6.131916940212248 7.7426423728466025 320.84203985333443 6.761845499277114 316.35243713855743 11.138026088476179 5.893092840909957 5.881001204252243 52.078265219926834 5.6451669037342072
leaf_count=28 22 39 22 27 2739 20 39 20 24 36 19 31 20 21 26 1101 23 1086 38 20 20 177 20
internal_value=-0.000511519 0.0196572 0.0536506 -0.0555766 0.0538839 0.0510626 -0.0586661 0.0539468 -0.0555905 -0.0555514 0.0539231 -0.0554211 -0.0561468 -0.0553975 -0.0559756 -0.0553924 -0.0553762 -0.0553692 -0.055358 -0.0557476 -0.0556741 -0.0558984 0.0538664
internal_weight=1615.25 1182.31 814.356 367.956 802.081 17.5011 20.1626 784.58 432.936 426.238 778.629 349.7 76.5381 347.793 65.7374 342.56 327.604 339.503 327.49 14.956 12.0129 57.9948 11.8447
internal_count=5618 4138 2879 1259 2840 62 66 2778 1480 1458 2758 1199 259 1193 223 1175 1124 1165 1124 51 41 197 42
is_linear=0
shrinkage=0.05


Tree=30
num_leaves=20
num_cat=0
split_feature=49 49 49 49 49 16 49 0 16 49 16 4 16 16 16 27 46 14 4
split_gain=1281.57 229.529 4.66141 0.201073 0.0507066 0.0363258 0.00927895 0.00295306 0.00154659 0.000513648 0.000496181 0.000116624 9.46034e-05 4.91824e-05 3.82837e-05 3.44741e-05 1.55789e-05 6.14988e-06 1.20785e-06
threshold=0.32595631145317827 0.5566830143701883 0.56721850296063858 0.32359145210162082 0.1627349306414885 9.4850000000000332 0.32865628220876442 3346.6196509374636 16.311071428571402 0.16429465578418634 10.110357142857117 3305.8383750204612 5.0950000000000122 17.400714285714219 4.8925000000000098 3009.1303584862303 0.90352968846440118 3127.0740635306206 2799.5523274856246
decision_type=2 2 2 2 2 2 2 2 2 2 2 2 2 2 2 2 2 2 2
left_child=3 5 -3 4 12 -2 -7 8 -8 -6 11 -11 14 -4 18 -16 -15 -18 -1
right_child=1 2 13 -5 9 6 7 -9 -10 10 -12 -13 -14 16 15 -17 17 -19 -20
leaf_value=-0.044327148009484472 0.080712885127684944 0.0043879381851058942 -0.044719004091955936 -0.032825787969927515 -0.043871733436823039 0.078840909187345862 0.077077114896202961 0.0780137153548221 0.077612852151769024 -0.04341332717647875 -0.044028857136978836 -0.043590908433874032 -0.044117133741473386 -0.04462006218160517 -0.044575575348416746 -0.04438572719031126 -0.044524532951860957 -0.044468139280121527 -0.044356177367328331
leaf_weight=3.6482163518667212 7.2935408651828757 5.5046495199203482 3.6017026156187049 4.2523736208677283 6.4347554296255103 7.9716946184635153 368.39365938305855 8.9857185781002027 13.982720941305159 429.33138228952885 3.3403249382972708 9.4490628540515882 4.071934536099433 3.9330765008926383 3.7371805906295759 6.6394759267568588 28.700841963291168 5.8137082159519187 201.24305675923824
leaf_count=21 22 22 20 24 39 24 1106 27 42 2737 20 59 24 22 21 38 162 33 1155
internal_value=0.000178236 0.0650606 -0.0388784 -0.0436639 -0.0437329 0.077216 0.0771522 0.0771178 0.0770967 -0.0434282 -0.0434218 -0.0434172 -0.0443559 -0.0445423 -0.0443604 -0.0444541 -0.0445258 -0.044515 -0.0443557
internal_weight=1126.33 454.181 47.554 672.148 667.895 406.627 399.334 391.362 382.376 448.556 442.121 438.78 219.34 42.0493 215.268 10.3767 38.4476 34.5146 204.891
internal_count=5618 1480 259 4138 4114 1221 1199 1175 1148 2855 2816 2796 1259 237 1235 59 217 195 1176
is_linear=0
shrinkage=0.05


Tree=31
num_leaves=25
num_cat=0
split_feature=49 10 49 49 2 11 7 17 18 50 49 49 49 0 27 49 4 49 49 10 49 13 49 1
split_gain=482.246 0.232011 0.671499 0.56698 0.00917226 0.00394396 0.00232052 0.00148909 0.000473718 0.000396982 0.000331791 0.000199032 0.000370295 9.82786e-05 3.10712e-05 3.74676e-06 2.9074e-06 2.17888e-06 1.815e-06 1.09565e-06 3.21493e-07 2.56672e-07 7.23848e-07 9.30839e-08
threshold=0.5566830143701883 -2.610826304695403 0.57955429190182395 0.57955429190182395 3319.2076118515129 1.5419542140292015 15.056531950533683 17.640952380952388 37.071069909735556 0.59860943204871353 0.51801142746933304 0.1627349306414885 0.32359145210162082 3169.0917872510313 2973.6504729816406 0.16429465578418634 3305.8383750204612 0.33086313782331284 0.50820259218689834 -2.6671976855473698 0.16155642440512621 3237.3960000000002 0.15463907310625316 3130.3565102558191
decision_type=2 2 2 2 2 2 2 2 2 2 2 2 2 2 2 2 2 2 2 2 2 2 2 2
left_child=10 2 -2 -3 7 6 -4 -5 -9 -8 11 20 15 14 -12 -13 -17 19 -19 -14 21 23 -23 -1
right_child=1 3 5 4 -6 -7 9 8 -10 -11 13 12 17 -15 -16 16 -18 18 -20 -21 -22 22 -24 -25
leaf_value=-0.03881035935846372 0.087357277197816732 0.12282113873634082 0.10701272251798744 0.10543503414445686 0.10808936374877019 0.10762473188168505 0.10571424447709306 0.10668315190770646 0.10613006731119606 0.10614767171878517 -0.038903288460308605 -0.038724523113880235 -0.038720388763204605 -0.039620841736996613 -0.039251777721058007 -0.038645834529759907 -0.038698640699166176 -0.038812413265714399 -0.038882079031828914 -0.038788267004551957 -0.038836564871568842 -0.038809886098393226 -0.038759892587741228 -0.03882100229658822
leaf_weight=47.586036566644907 5.3006861954927436 6.5097176432609549 6.9803417325019863 6.4165433645248475 7.5512568652629843 6.0532040596008292 9.1556390225887316 6.0784399211406734 10.662878692150114 12.489843457937239 1.5663342885673044 1.5872038230299939 0.81174629181623492 1.0318933390080927 1.0810747370123861 105.44220128655434 2.6726755872368804 47.125635240226984 0.95384993776678939 2.2213502228260031 1.1505942381918419 2.9133347719907756 0.96348596364259709 2.1471284553408614
leaf_count=1094 20 24 23 21 25 20 30 20 35 41 34 39 20 16 20 2749 67 1082 21 52 26 67 23 49
internal_value=-0.000895651 0.106577 0.103932 0.109417 0.106576 0.106465 0.10622 0.106083 0.106331 0.105964 -0.0387361 -0.0387281 -0.0387 -0.0392069 -0.0390456 -0.0386483 -0.0386471 -0.0388112 -0.0388138 -0.0387701 -0.0388104 -0.0388099 -0.0387975 -0.0388108
internal_weight=296.453 77.1986 39.9797 37.2188 30.7091 34.679 28.6258 23.1579 16.7413 21.6455 219.255 215.575 160.815 3.6793 2.64741 109.702 108.115 51.1126 48.0795 3.0331 54.7606 53.61 3.87682 49.7332
internal_count=5618 259 134 125 101 114 94 76 55 71 5359 5289 4030 70 54 2855 2816 1175 1103 72 1259 1233 90 1143
is_linear=0
shrinkage=0.05


Tree=32
num_leaves=23
num_cat=0
split_feature=49 49 49 16 49 49 49 0 38 49 49 16 49 27 16 16 44 49 16 10 38 46
split_gain=1383.13 5.63181 0.227121 0.0685585 0.0565231 0.0271368 0.00633267 0.00384797 0.00290852 0.00151754 0.0011757 0.000911735 0.000765496 0.000515194 0.000409892 0.000406678 0.00035437 0.000251616 0.000137181 0.000127038 7.67915e-05 2.3753e-05
threshold=0.1627349306414885 0.16346973500209752 0.16155642440512621 4.9250000000000203 0.32359145210162082 0.15807568450678092 0.16528210551189751 2954.8911598067994 0.32569498068350905 0.16429465578418634 0.5566830143701883 4.8657142857142786 0.16702785299298098 2972.5186186239357 10.110357142857117 17.400714285714219 0.030343234009427806 0.32865628220876442 9.4850000000000332 -1.5253187986434733 0.11732351237151177 0.88489922754691475
decision_type=2 2 2 2 2 2 2 2 2 2 2 2 2 2 2 2 2 2 2 2 2 2
left_child=2 -2 3 7 6 -5 9 8 -1 -3 17 20 13 -8 -14 -12 -10 19 -19 -6 -9 -17
right_child=1 4 -4 5 10 -7 12 11 16 -11 15 -13 14 -15 -16 21 -18 18 -20 -21 -22 -23
leaf_value=0.07352692424394304 0.01067574059577546 -0.045237438555110171 0.080369695936828245 0.073322820337647143 -0.043458333581260361 0.077286088331126171 -0.043152412895289587 0.072024500275097977 0.072044625065296339 -0.04382727916736423 -0.044631105392152197 0.072436676034166425 -0.043047621871336504 -0.044031255164945382 -0.043616832406783546 -0.044325677757952174 0.072526179987392456 -0.043668102650096484 -0.043996458550828364 -0.043864753317436472 0.071951762180882825 -0.04418854389625354
leaf_weight=6.6562486588954952 4.8423240333795539 3.7164452672004691 8.5732896924018842 8.9884290993213671 3.1453908681869507 8.3141913115978223 3.3340605795383444 40.929745882749557 7.9860343337059003 3.9203968942165375 6.4184163659811011 10.319106757640837 408.58305925130844 3.336297795176506 3.1874173283576956 3.4731395989656439 7.32406085729599 3.2330254763364783 197.16825416684151 4.9465514868497831 319.7583104968071 34.765522167086601
leaf_count=20 19 20 26 27 20 25 22 123 24 24 36 31 2730 20 20 20 22 20 1175 30 961 203
internal_value=0.000758378 -0.0430552 0.0723153 0.072147 -0.0434383 0.0752272 -0.0430867 0.0720113 0.0726544 -0.0445135 -0.04403 0.0719733 -0.0430606 -0.043592 -0.043052 -0.0442628 0.072275 -0.0439801 -0.0439912 -0.0437068 0.07196 -0.044201
internal_weight=1102.92 684.07 418.849 410.276 679.228 17.3026 426.078 392.974 21.9663 7.63684 253.15 371.007 418.441 6.67036 411.77 44.6571 15.3101 208.493 200.401 8.09194 360.688 38.2387
internal_count=5618 4359 1259 1233 4340 52 2836 1181 66 44 1504 1115 2792 42 2750 259 46 1245 1195 50 1084 223
is_linear=0
shrinkage=0.05


Tree=33
num_leaves=29
num_cat=0
split_feature=49 49 49 18 55 49 49 49 49 27 49 49 49 44 46 7 1 2 53 26 9 49 49 14 46 0 51 46
split_gain=650.485 1095.99 1.19244 0.0573135 0.120069 0.0524692 0.0187833 0.0132073 0.0114321 0.013883 0.00880953 0.00818011 0.00470867 0.00284806 0.00388125 0.00183054 0.000666947 0.000617451 0.000535186 0.000430306 0.000348664 0.000343758 0.000277536 0.000418563 0.000249731 0.000154251 0.000145773 8.41718e-06
threshold=0.32595631145317827 0.1627349306414885 0.16429465578418634 15.045439975801935 0.11198242041178587 0.16155642440512621 0.32359145210162082 0.5566830143701883 0.15648853619092967 2976.3641160848442 0.16702785299298098 0.33641911177740097 0.56721850296063858 0.12080618508624776 1.091585848515596 55.070622687790042 2747.1976001120161 3319.2076118515129 6.5000000000000009 222011.4899999995 6.4226486818142812 0.51801142746933304 0.15365348121926417 3101.0962562505961 0.91368105770586661 2954.8911598067994 0.2685048875857024 0.8884834258664599
decision_type=2 2 2 2 2 2 2 2 2 2 2 2 2 2 2 2 2 2 2 2 2 2 2 2 2 2 2 2
left_child=1 5 -3 4 -4 8 10 11 22 26 -5 13 -9 14 -2 -11 -13 18 24 21 -15 -18 25 -24 -14 -1 -10 -6
right_child=7 2 3 6 27 -7 -8 12 9 15 -12 16 17 20 -16 -17 19 -19 -20 -21 -22 -23 23 -25 -26 -27 -28 -29
leaf_value=-0.053823874931984809 -0.05601344556274928 0.036533863633727785 0.043370369237105882 0.05348598394747052 0.052354275140211792 -0.057900925984429231 0.055079627967697081 -0.055787553117376126 -0.053642633905293606 -0.055294488224240004 0.052377707742255225 -0.054106162211584402 -0.054581055806057391 -0.053826617796529669 -0.054284096596233095 -0.05647253684098176 -0.053682768048022848 -0.054809702860708978 -0.054755416011154336 -0.054079482243516441 -0.054362760095267193 -0.053464495888526475 -0.053700358892838668 -0.054213736749945188 -0.054232020972535058 -0.053649277646130214 -0.053941734399675006 0.052440223094533812
leaf_weight=13.24001109600067 6.4387832581996935 12.08257073163986 5.4436373412609127 18.38285556435585 5.6902719438076002 7.8157100081443778 6.6222764849662772 6.4342420101165763 10.939048588275915 6.3803944885730726 728.96381571888924 9.3497880995273572 5.7323148250579825 6.4799714684486371 6.5399520099163055 6.8248290419578552 283.01110288500786 7.2004464268684378 6.3156169056892386 6.5176169276237479 5.6996274292469025 19.26629438996315 13.201114505529405 5.6780330538749686 48.354344636201859 283.9049965441227 6.4907628297805777 5.7042481601238251
leaf_count=47 22 39 20 66 21 26 23 22 39 22 2689 33 20 23 23 23 1008 25 22 23 20 69 47 20 170 1012 23 21
internal_value=-0.000498193 0.019093 0.0521197 0.052364 0.049479 -0.0538496 0.0524285 -0.0538894 -0.0537583 -0.0546805 0.052405 -0.0537588 -0.0544951 -0.0546267 -0.055142 -0.0559033 -0.0536901 -0.054372 -0.0543199 -0.0536775 -0.0540775 -0.0536689 -0.0536689 -0.0538548 -0.054269 -0.0536571 -0.053754 0.0523973
internal_weight=1554.7 1137.36 782.89 770.807 16.8382 354.475 753.969 417.34 346.659 30.635 747.347 343.303 74.037 25.1583 12.9787 13.2052 318.145 67.6027 60.4023 308.795 12.1796 302.277 316.024 18.8791 54.0867 297.145 17.4298 11.3945
internal_count=5618 4138 2879 2840 62 1259 2778 1480 1233 107 2755 1221 259 88 45 45 1133 237 212 1100 43 1077 1126 67 190 1059 62 42
is_linear=0
shrinkage=0.05


Tree=34
num_leaves=20
num_cat=0
split_feature=49 49 49 49 49 16 49 0 16 49 16 4 16 49 16 16 17 46 49
split_gain=1153.34 201.963 4.53221 0.212895 0.048337 0.0246385 0.00638643 0.00207986 0.00114922 0.000463931 0.000398565 9.61729e-05 8.90723e-05 5.63206e-05 0.000102245 5.38262e-05 4.85039e-05 1.15559e-05 5.47587e-06
threshold=0.32595631145317827 0.5566830143701883 0.56721850296063858 0.32359145210162082 0.16429465578418634 9.4850000000000332 0.32865628220876442 3346.6196509374636 15.961428571428526 0.1627349306414885 10.110357142857117 3305.8383750204612 9.1667857142857034 0.16155642440512621 5.0707142857142715 17.770714285714252 7.8119047619047279 0.91368105770586661 0.61992850709600456
decision_type=2 2 2 2 2 2 2 2 2 2 2 2 2 2 2 2 2 2 2
left_child=3 5 -3 4 9 -2 -7 8 -8 13 11 12 -6 14 -1 -4 -13 -17 -19
right_child=1 2 15 -5 10 6 7 -9 -10 -11 -12 16 -14 -15 -16 17 -18 18 -20
leaf_value=-0.04390673216672783 0.075310019632929368 0.0042047361677817084 -0.044267540443399707 -0.031793482402637005 -0.042956891122279489 0.073784242379521511 0.072317448937093284 0.073107628309339978 0.072698125837340005 -0.043464817628607336 -0.043530740919465759 -0.043289351235337975 -0.043052478033437973 -0.0440830056405681 -0.043629310959704598 -0.044186639638660534 -0.043044230304898935 -0.044039188586127667 -0.044098507288827277
leaf_weight=201.39052972197533 7.3297005891799918 5.515424743294715 5.5161117762327185 4.0562995523214331 378.94660371541977 7.9871886670589438 361.16311776638031 8.9929963350296003 20.977236211299896 6.1346734613180152 3.154902219772338 3.0853158980607969 26.046885207295418 4.3974894732236853 3.3769350647926322 3.4238921999931327 5.8348121494054794 4.5510989725589779 26.804908961057663
leaf_count=1212 22 22 32 24 2563 24 1085 27 63 39 20 20 174 26 21 20 39 27 158
internal_value=0.000171236 0.0612199 -0.0383041 -0.0432117 -0.043285 0.0724374 0.0723846 0.072356 0.0723383 -0.0438934 -0.0429709 -0.0429666 -0.042963 -0.043906 -0.0439022 -0.0441224 -0.043129 -0.0440994 -0.0440899
internal_weight=1088.69 452.262 45.8114 636.424 632.368 406.45 399.121 391.133 382.14 215.3 417.069 413.914 404.993 209.165 204.767 40.296 8.92013 34.7799 31.356
internal_count=5618 1480 259 4138 4114 1221 1199 1175 1148 1298 2816 2796 2737 1259 1233 237 59 205 185
is_linear=0
shrinkage=0.05


Tree=35
num_leaves=22
num_cat=0
split_feature=49 40 40 49 16 46 17 22 16 16 49 49 24 16 4 16 49 49 16 17 49
split_gain=423.26 0.231933 0.173577 0.646563 0.322972 0.0121843 0.00433103 0.00687064 0.000899653 0.000335028 0.000232349 0.00038104 0.000169847 6.07055e-05 3.80335e-05 5.64106e-06 3.80401e-06 1.64456e-06 9.06158e-07 5.13579e-07 4.60494e-07
threshold=0.5566830143701883 0.58962523011980239 0.15731658904172577 0.57955429190182395 18.221785714285637 1.1966453067244582 22.425238095238104 34.340961339934758 18.816785714285697 17.400714285714219 0.32595631145317827 0.16429465578418634 4.3313000279259271 15.961428571428526 3127.6853678417742 10.180714285714254 0.1627349306414885 0.32122749426407299 9.4850000000000332 16.940476190476247 0.16155642440512621
decision_type=2 2 2 2 2 2 2 2 2 2 2 2 2 2 2 2 2 2 2 2 2
left_child=9 2 4 -4 -2 -6 8 -8 -5 10 11 16 -7 18 -15 17 20 -13 -12 -20 -1
right_child=1 -3 3 6 5 12 7 -9 -10 -11 13 15 -14 14 -16 -17 -18 -19 19 -21 -22
leaf_value=-0.038740948791776739 0.083894693699561138 0.087026591758630395 0.11272165634891157 0.095546000981946724 0.098698918263304722 0.096329198464387797 0.095953969833405706 0.098231483404576769 0.096223135903590273 -0.03970773409742296 -0.038691183398524433 -0.038573015453161719 0.096030926556506219 -0.039207087973548327 -0.038828778993591287 -0.038707214692261752 -0.03866112020882824 -0.038625068019190412 -0.03874161616495142 -0.038771963711733082 -0.038773650524719164
leaf_weight=50.970582142472267 5.9983244389295605 6.1251299381256095 7.3486603498458853 7.3116768896579769 6.271237879991534 8.5587414801120776 6.3487120866775495 6.9217329621315002 14.904444158077238 0.76794124394655128 0.8746570385992517 100.19600895419717 10.789680480957029 1.1226128526031964 1.6276098415255544 0.79857076704502006 1.5093577429652203 1.540753386914729 45.329359069466591 1.4383563622832287 1.0997490286827076
leaf_count=1233 21 20 25 23 20 27 20 22 47 11 22 2779 34 21 37 20 39 41 1096 34 26
internal_value=-0.00086263 0.0963791 0.0971485 0.0992226 0.0943385 0.0967836 0.0964272 0.0971419 0.0960003 -0.0386653 -0.0386614 -0.0386313 0.0961629 -0.0387548 -0.0389832 -0.0385748 -0.0387394 -0.0385738 -0.0387416 -0.0387425 -0.0387416
internal_weight=287.854 80.5783 74.4532 42.8352 31.618 25.6197 35.4866 13.2704 22.2161 207.276 206.508 156.115 19.3484 50.3926 2.75022 102.535 53.5797 101.737 47.6424 46.7677 52.0703
internal_count=5618 259 239 137 102 81 112 42 70 5359 5348 4138 61 1210 58 2840 1298 2820 1152 1130 1259
is_linear=0
shrinkage=0.05


Tree=36
num_leaves=21
num_cat=0
split_feature=49 49 49 49 16 49 0 49 49 49 16 16 39 27 16 46 49 16 49 46
split_gain=1245.5 3.051 0.161607 0.0549463 0.0484372 0.0191675 0.00275895 0.0017485 0.00126965 0.00126826 0.000632673 0.000630622 0.000487373 0.000470706 0.000408924 0.000189266 0.000174184 0.000115653 2.93535e-05 2.21667e-05
threshold=0.1627349306414885 0.16429465578418634 0.16155642440512621 0.32595631145317827 4.9250000000000203 0.15807568450678092 2954.8911598067994 0.15303285305112888 0.16702785299298098 0.5566830143701883 10.180714285714254 4.8657142857142786 0.81603041012546895 2981.1657746723399 17.400714285714219 0.75135523119958958 0.31958360810934799 9.4850000000000332 0.32865628220876442 0.88489922754691475
decision_type=2 2 2 2 2 2 2 2 2 2 2 2 2 2 2 2 2 2 2 2
left_child=2 -2 4 8 6 -6 7 15 13 17 16 12 -8 -3 -11 -1 -10 -5 -19 -16
right_child=1 3 -4 9 5 -7 11 -9 10 14 -12 -13 -14 -15 19 -17 -18 18 -20 -21
leaf_value=0.06807971229364683 -0.012634289013774613 -0.042877781145834876 0.075096273621086188 -0.043263619957339905 0.069156765835959658 0.072493471819826502 0.068005362991334417 0.069215238921482472 -0.042623002626259655 -0.044230879648590848 -0.04334731889481009 0.068411404175306625 0.068438874527329829 -0.043565000823477799 -0.043913682343634131 0.068445791101588591 -0.042843835840801522 -0.043420172315519624 -0.043561191386345073 -0.043778279489270787
leaf_weight=6.5972038507461566 8.3779950141906721 5.2384224832057935 8.6038625538349134 3.3857901990413657 8.9282097518444079 8.3098843693733198 350.91458314657211 7.6037511825561515 379.3752471357584 6.1621388196945182 3.0828378647565833 10.236065447330473 6.6053951382637015 4.7521237879991531 3.3249156624078742 7.5959821045398712 9.1445768326520902 3.7641768455505362 187.65294042229652 33.247014954686165
leaf_count=20 39 36 26 22 27 25 1064 23 2691 36 20 31 20 30 20 23 63 24 1175 203
internal_value=0.000739795 -0.0426117 0.068315 -0.0430046 0.0681716 0.0707653 0.0680568 0.0686034 -0.0426481 -0.0436074 -0.0426339 0.0680245 0.0680134 -0.0432047 -0.0438541 0.0682756 -0.0426282 -0.0435533 -0.0435584 -0.0437906
internal_weight=1062.9 647.508 415.395 639.13 406.791 17.2381 389.553 21.7969 401.593 237.537 391.603 367.756 357.52 9.99055 42.7341 14.1932 388.52 194.803 191.417 36.5719
internal_count=5618 4359 1259 4320 1233 52 1181 66 2840 1480 2774 1115 1084 66 259 43 2754 1221 1199 223
is_linear=0
shrinkage=0.05


Tree=37
num_leaves=27
num_cat=0
split_feature=49 49 49 49 49 49 49 3 49 49 4 49 54 46 26 12 2 26 4 26 9 46 49 49 0 0
